digraph Tree {
node [shape=box] ;
0 [label="handsetAge <= 303.5\nentropy = 1.0\nsamples = 5000\nvalue = [2500, 2500]"] ;
1 [label="currentHandsetPrice <= 19.99\nentropy = 0.963\nsamples = 2005\nvalue = [1229, 776]"] ;
0 -> 1 [labeldistance=2.5, labelangle=45, headlabel="True"] ;
2 [label="callMinutesChangePct <= -2.315\nentropy = 0.878\nsamples = 736\nvalue = [517, 219]"] ;
1 -> 2 ;
3 [label="handsetAge <= 217.0\nentropy = 0.988\nsamples = 172\nvalue = [97, 75]"] ;
2 -> 3 ;
4 [label="age <= 20.0\nentropy = 0.986\nsamples = 79\nvalue = [34, 45]"] ;
3 -> 4 ;
5 [label="lifeTime <= 15.5\nentropy = 0.799\nsamples = 33\nvalue = [8, 25]"] ;
4 -> 5 ;
6 [label="peakOffPeakRatioChangePct <= 10.308\nentropy = 0.65\nsamples = 30\nvalue = [5, 25]"] ;
5 -> 6 ;
7 [label="avgReceivedMins <= 480.21\nentropy = 0.258\nsamples = 23\nvalue = [1, 22]"] ;
6 -> 7 ;
8 [label="entropy = 0.0\nsamples = 22\nvalue = [0, 22]"] ;
7 -> 8 ;
9 [label="entropy = 0.0\nsamples = 1\nvalue = [1, 0]"] ;
7 -> 9 ;
10 [label="billAmountChangePct <= -0.276\nentropy = 0.985\nsamples = 7\nvalue = [4, 3]"] ;
6 -> 10 ;
11 [label="entropy = 0.0\nsamples = 3\nvalue = [0, 3]"] ;
10 -> 11 ;
12 [label="entropy = 0.0\nsamples = 4\nvalue = [4, 0]"] ;
10 -> 12 ;
13 [label="entropy = 0.0\nsamples = 3\nvalue = [3, 0]"] ;
5 -> 13 ;
14 [label="age <= 45.0\nentropy = 0.988\nsamples = 46\nvalue = [26, 20]"] ;
4 -> 14 ;
15 [label="income <= 5.5\nentropy = 0.826\nsamples = 27\nvalue = [20, 7]"] ;
14 -> 15 ;
16 [label="peakOffPeakRatio <= 0.711\nentropy = 1.0\nsamples = 12\nvalue = [6, 6]"] ;
15 -> 16 ;
17 [label="entropy = 0.0\nsamples = 3\nvalue = [3, 0]"] ;
16 -> 17 ;
18 [label="avgRoamCalls <= 0.54\nentropy = 0.918\nsamples = 9\nvalue = [3, 6]"] ;
16 -> 18 ;
19 [label="entropy = 0.0\nsamples = 5\nvalue = [0, 5]"] ;
18 -> 19 ;
20 [label="avgDroppedCalls <= 6.17\nentropy = 0.811\nsamples = 4\nvalue = [3, 1]"] ;
18 -> 20 ;
21 [label="entropy = 0.0\nsamples = 1\nvalue = [0, 1]"] ;
20 -> 21 ;
22 [label="entropy = 0.0\nsamples = 3\nvalue = [3, 0]"] ;
20 -> 22 ;
23 [label="avgBill <= 180.68\nentropy = 0.353\nsamples = 15\nvalue = [14, 1]"] ;
15 -> 23 ;
24 [label="entropy = 0.0\nsamples = 14\nvalue = [14, 0]"] ;
23 -> 24 ;
25 [label="entropy = 0.0\nsamples = 1\nvalue = [0, 1]"] ;
23 -> 25 ;
26 [label="peakOffPeakRatio <= 1.129\nentropy = 0.9\nsamples = 19\nvalue = [6, 13]"] ;
14 -> 26 ;
27 [label="entropy = 0.0\nsamples = 8\nvalue = [0, 8]"] ;
26 -> 27 ;
28 [label="peakOffPeakRatioChangePct <= 3.506\nentropy = 0.994\nsamples = 11\nvalue = [6, 5]"] ;
26 -> 28 ;
29 [label="billAmountChangePct <= -0.354\nentropy = 0.863\nsamples = 7\nvalue = [2, 5]"] ;
28 -> 29 ;
30 [label="entropy = 0.0\nsamples = 5\nvalue = [0, 5]"] ;
29 -> 30 ;
31 [label="entropy = 0.0\nsamples = 2\nvalue = [2, 0]"] ;
29 -> 31 ;
32 [label="entropy = 0.0\nsamples = 4\nvalue = [4, 0]"] ;
28 -> 32 ;
33 [label="avgBill <= 43.5\nentropy = 0.907\nsamples = 93\nvalue = [63, 30]"] ;
3 -> 33 ;
34 [label="peakOffPeakRatio <= 3.666\nentropy = 0.529\nsamples = 25\nvalue = [22, 3]"] ;
33 -> 34 ;
35 [label="avgOverBundleMins <= 66.875\nentropy = 0.414\nsamples = 24\nvalue = [22, 2]"] ;
34 -> 35 ;
36 [label="avgRoamCalls <= 1.21\nentropy = 0.258\nsamples = 23\nvalue = [22, 1]"] ;
35 -> 36 ;
37 [label="entropy = 0.0\nsamples = 21\nvalue = [21, 0]"] ;
36 -> 37 ;
38 [label="peakOffPeakRatioChangePct <= -9.982\nentropy = 1.0\nsamples = 2\nvalue = [1, 1]"] ;
36 -> 38 ;
39 [label="entropy = 0.0\nsamples = 1\nvalue = [1, 0]"] ;
38 -> 39 ;
40 [label="entropy = 0.0\nsamples = 1\nvalue = [0, 1]"] ;
38 -> 40 ;
41 [label="entropy = 0.0\nsamples = 1\nvalue = [0, 1]"] ;
35 -> 41 ;
42 [label="entropy = 0.0\nsamples = 1\nvalue = [0, 1]"] ;
34 -> 42 ;
43 [label="avgBill <= 48.905\nentropy = 0.969\nsamples = 68\nvalue = [41, 27]"] ;
33 -> 43 ;
44 [label="billAmountChangePct <= 0.122\nentropy = 0.65\nsamples = 6\nvalue = [1, 5]"] ;
43 -> 44 ;
45 [label="entropy = 0.0\nsamples = 5\nvalue = [0, 5]"] ;
44 -> 45 ;
46 [label="entropy = 0.0\nsamples = 1\nvalue = [1, 0]"] ;
44 -> 46 ;
47 [label="handsetAge <= 222.5\nentropy = 0.938\nsamples = 62\nvalue = [40, 22]"] ;
43 -> 47 ;
48 [label="entropy = 0.0\nsamples = 6\nvalue = [6, 0]"] ;
47 -> 48 ;
49 [label="handsetAge <= 258.5\nentropy = 0.967\nsamples = 56\nvalue = [34, 22]"] ;
47 -> 49 ;
50 [label="avgDroppedCalls <= 18.0\nentropy = 0.985\nsamples = 28\nvalue = [12, 16]"] ;
49 -> 50 ;
51 [label="avgBill <= 56.995\nentropy = 0.619\nsamples = 13\nvalue = [2, 11]"] ;
50 -> 51 ;
52 [label="avgBill <= 55.285\nentropy = 1.0\nsamples = 4\nvalue = [2, 2]"] ;
51 -> 52 ;
53 [label="entropy = 0.0\nsamples = 2\nvalue = [0, 2]"] ;
52 -> 53 ;
54 [label="entropy = 0.0\nsamples = 2\nvalue = [2, 0]"] ;
52 -> 54 ;
55 [label="entropy = 0.0\nsamples = 9\nvalue = [0, 9]"] ;
51 -> 55 ;
56 [label="avgReceivedMins <= 346.37\nentropy = 0.918\nsamples = 15\nvalue = [10, 5]"] ;
50 -> 56 ;
57 [label="avgOverBundleMins <= 1.875\nentropy = 1.0\nsamples = 10\nvalue = [5, 5]"] ;
56 -> 57 ;
58 [label="entropy = 0.0\nsamples = 3\nvalue = [3, 0]"] ;
57 -> 58 ;
59 [label="avgOverBundleMins <= 103.5\nentropy = 0.863\nsamples = 7\nvalue = [2, 5]"] ;
57 -> 59 ;
60 [label="entropy = 0.0\nsamples = 4\nvalue = [0, 4]"] ;
59 -> 60 ;
61 [label="peakOffPeakRatio <= 0.788\nentropy = 0.918\nsamples = 3\nvalue = [2, 1]"] ;
59 -> 61 ;
62 [label="entropy = 0.0\nsamples = 1\nvalue = [0, 1]"] ;
61 -> 62 ;
63 [label="entropy = 0.0\nsamples = 2\nvalue = [2, 0]"] ;
61 -> 63 ;
64 [label="entropy = 0.0\nsamples = 5\nvalue = [5, 0]"] ;
56 -> 64 ;
65 [label="avgRoamCalls <= 1.09\nentropy = 0.75\nsamples = 28\nvalue = [22, 6]"] ;
49 -> 65 ;
66 [label="avgReceivedMins <= 266.92\nentropy = 0.918\nsamples = 18\nvalue = [12, 6]"] ;
65 -> 66 ;
67 [label="avgBill <= 58.745\nentropy = 0.996\nsamples = 13\nvalue = [7, 6]"] ;
66 -> 67 ;
68 [label="entropy = 0.0\nsamples = 3\nvalue = [3, 0]"] ;
67 -> 68 ;
69 [label="peakOffPeakRatioChangePct <= -1.606\nentropy = 0.971\nsamples = 10\nvalue = [4, 6]"] ;
67 -> 69 ;
70 [label="avgRoamCalls <= 0.53\nentropy = 0.722\nsamples = 5\nvalue = [4, 1]"] ;
69 -> 70 ;
71 [label="entropy = 0.0\nsamples = 4\nvalue = [4, 0]"] ;
70 -> 71 ;
72 [label="entropy = 0.0\nsamples = 1\nvalue = [0, 1]"] ;
70 -> 72 ;
73 [label="entropy = 0.0\nsamples = 5\nvalue = [0, 5]"] ;
69 -> 73 ;
74 [label="entropy = 0.0\nsamples = 5\nvalue = [5, 0]"] ;
66 -> 74 ;
75 [label="entropy = 0.0\nsamples = 10\nvalue = [10, 0]"] ;
65 -> 75 ;
76 [label="avgBill <= 28.025\nentropy = 0.82\nsamples = 564\nvalue = [420, 144]"] ;
2 -> 76 ;
77 [label="peakOffPeakRatio <= 1.745\nentropy = 0.994\nsamples = 68\nvalue = [37, 31]"] ;
76 -> 77 ;
78 [label="peakOffPeakRatio <= 0.69\nentropy = 0.968\nsamples = 38\nvalue = [15, 23]"] ;
77 -> 78 ;
79 [label="peakOffPeakRatioChangePct <= -7.095\nentropy = 0.976\nsamples = 22\nvalue = [13, 9]"] ;
78 -> 79 ;
80 [label="entropy = 0.0\nsamples = 4\nvalue = [4, 0]"] ;
79 -> 80 ;
81 [label="billAmountChangePct <= -0.005\nentropy = 1.0\nsamples = 18\nvalue = [9, 9]"] ;
79 -> 81 ;
82 [label="entropy = 0.0\nsamples = 3\nvalue = [3, 0]"] ;
81 -> 82 ;
83 [label="peakOffPeakRatio <= 0.501\nentropy = 0.971\nsamples = 15\nvalue = [6, 9]"] ;
81 -> 83 ;
84 [label="age <= 52.0\nentropy = 0.89\nsamples = 13\nvalue = [4, 9]"] ;
83 -> 84 ;
85 [label="income <= 5.0\nentropy = 0.684\nsamples = 11\nvalue = [2, 9]"] ;
84 -> 85 ;
86 [label="entropy = 0.0\nsamples = 7\nvalue = [0, 7]"] ;
85 -> 86 ;
87 [label="handsetAge <= 261.5\nentropy = 1.0\nsamples = 4\nvalue = [2, 2]"] ;
85 -> 87 ;
88 [label="entropy = 0.0\nsamples = 2\nvalue = [2, 0]"] ;
87 -> 88 ;
89 [label="entropy = 0.0\nsamples = 2\nvalue = [0, 2]"] ;
87 -> 89 ;
90 [label="entropy = 0.0\nsamples = 2\nvalue = [2, 0]"] ;
84 -> 90 ;
91 [label="entropy = 0.0\nsamples = 2\nvalue = [2, 0]"] ;
83 -> 91 ;
92 [label="billAmountChangePct <= -0.007\nentropy = 0.544\nsamples = 16\nvalue = [2, 14]"] ;
78 -> 92 ;
93 [label="income <= 5.0\nentropy = 0.971\nsamples = 5\nvalue = [2, 3]"] ;
92 -> 93 ;
94 [label="entropy = 0.0\nsamples = 3\nvalue = [0, 3]"] ;
93 -> 94 ;
95 [label="entropy = 0.0\nsamples = 2\nvalue = [2, 0]"] ;
93 -> 95 ;
96 [label="entropy = 0.0\nsamples = 11\nvalue = [0, 11]"] ;
92 -> 96 ;
97 [label="avgReceivedMins <= 2.96\nentropy = 0.837\nsamples = 30\nvalue = [22, 8]"] ;
77 -> 97 ;
98 [label="peakOffPeakRatio <= 4.183\nentropy = 0.996\nsamples = 13\nvalue = [6, 7]"] ;
97 -> 98 ;
99 [label="handsetAge <= 242.5\nentropy = 0.764\nsamples = 9\nvalue = [2, 7]"] ;
98 -> 99 ;
100 [label="avgReceivedMins <= 0.265\nentropy = 1.0\nsamples = 4\nvalue = [2, 2]"] ;
99 -> 100 ;
101 [label="entropy = 0.0\nsamples = 2\nvalue = [0, 2]"] ;
100 -> 101 ;
102 [label="entropy = 0.0\nsamples = 2\nvalue = [2, 0]"] ;
100 -> 102 ;
103 [label="entropy = 0.0\nsamples = 5\nvalue = [0, 5]"] ;
99 -> 103 ;
104 [label="entropy = 0.0\nsamples = 4\nvalue = [4, 0]"] ;
98 -> 104 ;
105 [label="callMinutesChangePct <= 4.597\nentropy = 0.323\nsamples = 17\nvalue = [16, 1]"] ;
97 -> 105 ;
106 [label="entropy = 0.0\nsamples = 16\nvalue = [16, 0]"] ;
105 -> 106 ;
107 [label="entropy = 0.0\nsamples = 1\nvalue = [0, 1]"] ;
105 -> 107 ;
108 [label="smartPhone <= 0.5\nentropy = 0.774\nsamples = 496\nvalue = [383, 113]"] ;
76 -> 108 ;
109 [label="income <= 5.5\nentropy = 0.961\nsamples = 13\nvalue = [5, 8]"] ;
108 -> 109 ;
110 [label="avgBill <= 31.95\nentropy = 0.65\nsamples = 6\nvalue = [5, 1]"] ;
109 -> 110 ;
111 [label="entropy = 0.0\nsamples = 1\nvalue = [0, 1]"] ;
110 -> 111 ;
112 [label="entropy = 0.0\nsamples = 5\nvalue = [5, 0]"] ;
110 -> 112 ;
113 [label="entropy = 0.0\nsamples = 7\nvalue = [0, 7]"] ;
109 -> 113 ;
114 [label="avgOverBundleMins <= 6.125\nentropy = 0.755\nsamples = 483\nvalue = [378, 105]"] ;
108 -> 114 ;
115 [label="avgInCalls <= 1.165\nentropy = 0.632\nsamples = 277\nvalue = [233, 44]"] ;
114 -> 115 ;
116 [label="billAmountChangePct <= 0.193\nentropy = 0.797\nsamples = 145\nvalue = [110, 35]"] ;
115 -> 116 ;
117 [label="avgBill <= 36.16\nentropy = 0.77\nsamples = 142\nvalue = [110, 32]"] ;
116 -> 117 ;
118 [label="peakOffPeakRatio <= 0.1\nentropy = 0.554\nsamples = 70\nvalue = [61, 9]"] ;
117 -> 118 ;
119 [label="callMinutesChangePct <= 0.265\nentropy = 0.918\nsamples = 15\nvalue = [10, 5]"] ;
118 -> 119 ;
120 [label="handsetAge <= 260.0\nentropy = 0.991\nsamples = 9\nvalue = [4, 5]"] ;
119 -> 120 ;
121 [label="callMinutesChangePct <= -0.025\nentropy = 0.722\nsamples = 5\nvalue = [4, 1]"] ;
120 -> 121 ;
122 [label="entropy = 0.0\nsamples = 4\nvalue = [4, 0]"] ;
121 -> 122 ;
123 [label="entropy = 0.0\nsamples = 1\nvalue = [0, 1]"] ;
121 -> 123 ;
124 [label="entropy = 0.0\nsamples = 4\nvalue = [0, 4]"] ;
120 -> 124 ;
125 [label="entropy = 0.0\nsamples = 6\nvalue = [6, 0]"] ;
119 -> 125 ;
126 [label="billAmountChangePct <= -0.517\nentropy = 0.376\nsamples = 55\nvalue = [51, 4]"] ;
118 -> 126 ;
127 [label="peakOffPeakRatio <= 1.261\nentropy = 1.0\nsamples = 4\nvalue = [2, 2]"] ;
126 -> 127 ;
128 [label="entropy = 0.0\nsamples = 2\nvalue = [2, 0]"] ;
127 -> 128 ;
129 [label="entropy = 0.0\nsamples = 2\nvalue = [0, 2]"] ;
127 -> 129 ;
130 [label="handsetAge <= 286.0\nentropy = 0.239\nsamples = 51\nvalue = [49, 2]"] ;
126 -> 130 ;
131 [label="entropy = 0.0\nsamples = 42\nvalue = [42, 0]"] ;
130 -> 131 ;
132 [label="avgDroppedCalls <= 3.835\nentropy = 0.764\nsamples = 9\nvalue = [7, 2]"] ;
130 -> 132 ;
133 [label="entropy = 0.0\nsamples = 6\nvalue = [6, 0]"] ;
132 -> 133 ;
134 [label="peakOffPeakRatioChangePct <= 10.288\nentropy = 0.918\nsamples = 3\nvalue = [1, 2]"] ;
132 -> 134 ;
135 [label="entropy = 0.0\nsamples = 2\nvalue = [0, 2]"] ;
134 -> 135 ;
136 [label="entropy = 0.0\nsamples = 1\nvalue = [1, 0]"] ;
134 -> 136 ;
137 [label="peakOffPeakRatioChangePct <= 1.721\nentropy = 0.904\nsamples = 72\nvalue = [49, 23]"] ;
117 -> 137 ;
138 [label="callMinutesChangePct <= 3.173\nentropy = 0.987\nsamples = 44\nvalue = [25, 19]"] ;
137 -> 138 ;
139 [label="peakOffPeakRatio <= 2.019\nentropy = 1.0\nsamples = 38\nvalue = [19, 19]"] ;
138 -> 139 ;
140 [label="callMinutesChangePct <= 1.46\nentropy = 0.904\nsamples = 25\nvalue = [8, 17]"] ;
139 -> 140 ;
141 [label="peakOffPeakRatio <= 0.868\nentropy = 0.722\nsamples = 20\nvalue = [4, 16]"] ;
140 -> 141 ;
142 [label="callMinutesChangePct <= -1.105\nentropy = 0.946\nsamples = 11\nvalue = [4, 7]"] ;
141 -> 142 ;
143 [label="entropy = 0.0\nsamples = 2\nvalue = [2, 0]"] ;
142 -> 143 ;
144 [label="avgDroppedCalls <= 7.67\nentropy = 0.764\nsamples = 9\nvalue = [2, 7]"] ;
142 -> 144 ;
145 [label="entropy = 0.0\nsamples = 7\nvalue = [0, 7]"] ;
144 -> 145 ;
146 [label="entropy = 0.0\nsamples = 2\nvalue = [2, 0]"] ;
144 -> 146 ;
147 [label="entropy = 0.0\nsamples = 9\nvalue = [0, 9]"] ;
141 -> 147 ;
148 [label="lifeTime <= 7.0\nentropy = 0.722\nsamples = 5\nvalue = [4, 1]"] ;
140 -> 148 ;
149 [label="entropy = 0.0\nsamples = 1\nvalue = [0, 1]"] ;
148 -> 149 ;
150 [label="entropy = 0.0\nsamples = 4\nvalue = [4, 0]"] ;
148 -> 150 ;
151 [label="avgOutCalls <= 12.33\nentropy = 0.619\nsamples = 13\nvalue = [11, 2]"] ;
139 -> 151 ;
152 [label="handsetAge <= 299.0\nentropy = 0.414\nsamples = 12\nvalue = [11, 1]"] ;
151 -> 152 ;
153 [label="entropy = 0.0\nsamples = 11\nvalue = [11, 0]"] ;
152 -> 153 ;
154 [label="entropy = 0.0\nsamples = 1\nvalue = [0, 1]"] ;
152 -> 154 ;
155 [label="entropy = 0.0\nsamples = 1\nvalue = [0, 1]"] ;
151 -> 155 ;
156 [label="entropy = 0.0\nsamples = 6\nvalue = [6, 0]"] ;
138 -> 156 ;
157 [label="peakOffPeakRatio <= 2.378\nentropy = 0.592\nsamples = 28\nvalue = [24, 4]"] ;
137 -> 157 ;
158 [label="avgBill <= 36.445\nentropy = 0.258\nsamples = 23\nvalue = [22, 1]"] ;
157 -> 158 ;
159 [label="entropy = 0.0\nsamples = 1\nvalue = [0, 1]"] ;
158 -> 159 ;
160 [label="entropy = 0.0\nsamples = 22\nvalue = [22, 0]"] ;
158 -> 160 ;
161 [label="age <= 38.0\nentropy = 0.971\nsamples = 5\nvalue = [2, 3]"] ;
157 -> 161 ;
162 [label="entropy = 0.0\nsamples = 3\nvalue = [0, 3]"] ;
161 -> 162 ;
163 [label="entropy = 0.0\nsamples = 2\nvalue = [2, 0]"] ;
161 -> 163 ;
164 [label="entropy = 0.0\nsamples = 3\nvalue = [0, 3]"] ;
116 -> 164 ;
165 [label="handsetAge <= 247.0\nentropy = 0.359\nsamples = 132\nvalue = [123, 9]"] ;
115 -> 165 ;
166 [label="callMinutesChangePct <= -1.728\nentropy = 0.503\nsamples = 81\nvalue = [72, 9]"] ;
165 -> 166 ;
167 [label="avgOutCalls <= 6.5\nentropy = 0.918\nsamples = 3\nvalue = [1, 2]"] ;
166 -> 167 ;
168 [label="entropy = 0.0\nsamples = 1\nvalue = [1, 0]"] ;
167 -> 168 ;
169 [label="entropy = 0.0\nsamples = 2\nvalue = [0, 2]"] ;
167 -> 169 ;
170 [label="avgBill <= 79.11\nentropy = 0.436\nsamples = 78\nvalue = [71, 7]"] ;
166 -> 170 ;
171 [label="peakOffPeakRatio <= 0.885\nentropy = 0.276\nsamples = 63\nvalue = [60, 3]"] ;
170 -> 171 ;
172 [label="avgBill <= 42.31\nentropy = 0.592\nsamples = 21\nvalue = [18, 3]"] ;
171 -> 172 ;
173 [label="avgOutCalls <= 25.665\nentropy = 0.845\nsamples = 11\nvalue = [8, 3]"] ;
172 -> 173 ;
174 [label="entropy = 0.0\nsamples = 7\nvalue = [7, 0]"] ;
173 -> 174 ;
175 [label="peakOffPeakRatioChangePct <= 0.695\nentropy = 0.811\nsamples = 4\nvalue = [1, 3]"] ;
173 -> 175 ;
176 [label="entropy = 0.0\nsamples = 3\nvalue = [0, 3]"] ;
175 -> 176 ;
177 [label="entropy = 0.0\nsamples = 1\nvalue = [1, 0]"] ;
175 -> 177 ;
178 [label="entropy = 0.0\nsamples = 10\nvalue = [10, 0]"] ;
172 -> 178 ;
179 [label="entropy = 0.0\nsamples = 42\nvalue = [42, 0]"] ;
171 -> 179 ;
180 [label="avgDroppedCalls <= 28.0\nentropy = 0.837\nsamples = 15\nvalue = [11, 4]"] ;
170 -> 180 ;
181 [label="avgReceivedMins <= 88.065\nentropy = 0.619\nsamples = 13\nvalue = [11, 2]"] ;
180 -> 181 ;
182 [label="avgInCalls <= 6.835\nentropy = 1.0\nsamples = 4\nvalue = [2, 2]"] ;
181 -> 182 ;
183 [label="entropy = 0.0\nsamples = 2\nvalue = [2, 0]"] ;
182 -> 183 ;
184 [label="entropy = 0.0\nsamples = 2\nvalue = [0, 2]"] ;
182 -> 184 ;
185 [label="entropy = 0.0\nsamples = 9\nvalue = [9, 0]"] ;
181 -> 185 ;
186 [label="entropy = 0.0\nsamples = 2\nvalue = [0, 2]"] ;
180 -> 186 ;
187 [label="entropy = 0.0\nsamples = 51\nvalue = [51, 0]"] ;
165 -> 187 ;
188 [label="callMinutesChangePct <= 16.673\nentropy = 0.876\nsamples = 206\nvalue = [145, 61]"] ;
114 -> 188 ;
189 [label="age <= 33.0\nentropy = 0.857\nsamples = 199\nvalue = [143, 56]"] ;
188 -> 189 ;
190 [label="callMinutesChangePct <= -1.273\nentropy = 0.939\nsamples = 107\nvalue = [69, 38]"] ;
189 -> 190 ;
191 [label="entropy = 0.0\nsamples = 8\nvalue = [8, 0]"] ;
190 -> 191 ;
192 [label="avgDroppedCalls <= 14.665\nentropy = 0.961\nsamples = 99\nvalue = [61, 38]"] ;
190 -> 192 ;
193 [label="billAmountChangePct <= 1.115\nentropy = 0.995\nsamples = 63\nvalue = [34, 29]"] ;
192 -> 193 ;
194 [label="callMinutesChangePct <= 3.1\nentropy = 0.977\nsamples = 56\nvalue = [33, 23]"] ;
193 -> 194 ;
195 [label="lifeTime <= 8.5\nentropy = 0.983\nsamples = 33\nvalue = [14, 19]"] ;
194 -> 195 ;
196 [label="handsetAge <= 235.5\nentropy = 0.918\nsamples = 15\nvalue = [10, 5]"] ;
195 -> 196 ;
197 [label="avgDroppedCalls <= 5.5\nentropy = 0.779\nsamples = 13\nvalue = [10, 3]"] ;
196 -> 197 ;
198 [label="avgBill <= 44.095\nentropy = 1.0\nsamples = 6\nvalue = [3, 3]"] ;
197 -> 198 ;
199 [label="entropy = 0.0\nsamples = 2\nvalue = [2, 0]"] ;
198 -> 199 ;
200 [label="peakOffPeakRatioChangePct <= 5.302\nentropy = 0.811\nsamples = 4\nvalue = [1, 3]"] ;
198 -> 200 ;
201 [label="entropy = 0.0\nsamples = 3\nvalue = [0, 3]"] ;
200 -> 201 ;
202 [label="entropy = 0.0\nsamples = 1\nvalue = [1, 0]"] ;
200 -> 202 ;
203 [label="entropy = 0.0\nsamples = 7\nvalue = [7, 0]"] ;
197 -> 203 ;
204 [label="entropy = 0.0\nsamples = 2\nvalue = [0, 2]"] ;
196 -> 204 ;
205 [label="peakOffPeakRatio <= 1.428\nentropy = 0.764\nsamples = 18\nvalue = [4, 14]"] ;
195 -> 205 ;
206 [label="entropy = 0.0\nsamples = 10\nvalue = [0, 10]"] ;
205 -> 206 ;
207 [label="income <= 5.0\nentropy = 1.0\nsamples = 8\nvalue = [4, 4]"] ;
205 -> 207 ;
208 [label="avgDroppedCalls <= 1.5\nentropy = 0.918\nsamples = 6\nvalue = [2, 4]"] ;
207 -> 208 ;
209 [label="entropy = 0.0\nsamples = 2\nvalue = [2, 0]"] ;
208 -> 209 ;
210 [label="entropy = 0.0\nsamples = 4\nvalue = [0, 4]"] ;
208 -> 210 ;
211 [label="entropy = 0.0\nsamples = 2\nvalue = [2, 0]"] ;
207 -> 211 ;
212 [label="avgReceivedMins <= 200.275\nentropy = 0.667\nsamples = 23\nvalue = [19, 4]"] ;
194 -> 212 ;
213 [label="entropy = 0.0\nsamples = 15\nvalue = [15, 0]"] ;
212 -> 213 ;
214 [label="handsetAge <= 260.5\nentropy = 1.0\nsamples = 8\nvalue = [4, 4]"] ;
212 -> 214 ;
215 [label="entropy = 0.0\nsamples = 3\nvalue = [0, 3]"] ;
214 -> 215 ;
216 [label="avgInCalls <= 10.5\nentropy = 0.722\nsamples = 5\nvalue = [4, 1]"] ;
214 -> 216 ;
217 [label="entropy = 0.0\nsamples = 4\nvalue = [4, 0]"] ;
216 -> 217 ;
218 [label="entropy = 0.0\nsamples = 1\nvalue = [0, 1]"] ;
216 -> 218 ;
219 [label="numHandsets <= 2.5\nentropy = 0.592\nsamples = 7\nvalue = [1, 6]"] ;
193 -> 219 ;
220 [label="entropy = 0.0\nsamples = 6\nvalue = [0, 6]"] ;
219 -> 220 ;
221 [label="entropy = 0.0\nsamples = 1\nvalue = [1, 0]"] ;
219 -> 221 ;
222 [label="peakOffPeakRatioChangePct <= -0.672\nentropy = 0.811\nsamples = 36\nvalue = [27, 9]"] ;
192 -> 222 ;
223 [label="avgOutCalls <= 55.5\nentropy = 1.0\nsamples = 14\nvalue = [7, 7]"] ;
222 -> 223 ;
224 [label="entropy = 0.0\nsamples = 5\nvalue = [5, 0]"] ;
223 -> 224 ;
225 [label="peakOffPeakRatioChangePct <= -2.223\nentropy = 0.764\nsamples = 9\nvalue = [2, 7]"] ;
223 -> 225 ;
226 [label="entropy = 0.0\nsamples = 6\nvalue = [0, 6]"] ;
225 -> 226 ;
227 [label="peakOffPeakRatioChangePct <= -0.963\nentropy = 0.918\nsamples = 3\nvalue = [2, 1]"] ;
225 -> 227 ;
228 [label="entropy = 0.0\nsamples = 2\nvalue = [2, 0]"] ;
227 -> 228 ;
229 [label="entropy = 0.0\nsamples = 1\nvalue = [0, 1]"] ;
227 -> 229 ;
230 [label="handsetAge <= 249.5\nentropy = 0.439\nsamples = 22\nvalue = [20, 2]"] ;
222 -> 230 ;
231 [label="entropy = 0.0\nsamples = 15\nvalue = [15, 0]"] ;
230 -> 231 ;
232 [label="peakOffPeakRatioChangePct <= 3.987\nentropy = 0.863\nsamples = 7\nvalue = [5, 2]"] ;
230 -> 232 ;
233 [label="entropy = 0.0\nsamples = 5\nvalue = [5, 0]"] ;
232 -> 233 ;
234 [label="entropy = 0.0\nsamples = 2\nvalue = [0, 2]"] ;
232 -> 234 ;
235 [label="avgInCalls <= 41.165\nentropy = 0.713\nsamples = 92\nvalue = [74, 18]"] ;
189 -> 235 ;
236 [label="avgDroppedCalls <= 6.835\nentropy = 0.637\nsamples = 87\nvalue = [73, 14]"] ;
235 -> 236 ;
237 [label="avgRoamCalls <= 1.33\nentropy = 0.868\nsamples = 38\nvalue = [27, 11]"] ;
236 -> 237 ;
238 [label="handsetAge <= 232.5\nentropy = 0.734\nsamples = 34\nvalue = [27, 7]"] ;
237 -> 238 ;
239 [label="peakOffPeakRatio <= 0.959\nentropy = 0.964\nsamples = 18\nvalue = [11, 7]"] ;
238 -> 239 ;
240 [label="peakOffPeakRatioChangePct <= 2.822\nentropy = 0.811\nsamples = 8\nvalue = [2, 6]"] ;
239 -> 240 ;
241 [label="entropy = 0.0\nsamples = 2\nvalue = [2, 0]"] ;
240 -> 241 ;
242 [label="entropy = 0.0\nsamples = 6\nvalue = [0, 6]"] ;
240 -> 242 ;
243 [label="peakOffPeakRatioChangePct <= -6.059\nentropy = 0.469\nsamples = 10\nvalue = [9, 1]"] ;
239 -> 243 ;
244 [label="entropy = 0.0\nsamples = 1\nvalue = [0, 1]"] ;
243 -> 244 ;
245 [label="entropy = 0.0\nsamples = 9\nvalue = [9, 0]"] ;
243 -> 245 ;
246 [label="entropy = 0.0\nsamples = 16\nvalue = [16, 0]"] ;
238 -> 246 ;
247 [label="entropy = 0.0\nsamples = 4\nvalue = [0, 4]"] ;
237 -> 247 ;
248 [label="income <= 1.5\nentropy = 0.332\nsamples = 49\nvalue = [46, 3]"] ;
236 -> 248 ;
249 [label="avgDroppedCalls <= 40.17\nentropy = 0.971\nsamples = 5\nvalue = [3, 2]"] ;
248 -> 249 ;
250 [label="entropy = 0.0\nsamples = 3\nvalue = [3, 0]"] ;
249 -> 250 ;
251 [label="entropy = 0.0\nsamples = 2\nvalue = [0, 2]"] ;
249 -> 251 ;
252 [label="billAmountChangePct <= -0.733\nentropy = 0.156\nsamples = 44\nvalue = [43, 1]"] ;
248 -> 252 ;
253 [label="income <= 8.0\nentropy = 0.811\nsamples = 4\nvalue = [3, 1]"] ;
252 -> 253 ;
254 [label="entropy = 0.0\nsamples = 3\nvalue = [3, 0]"] ;
253 -> 254 ;
255 [label="entropy = 0.0\nsamples = 1\nvalue = [0, 1]"] ;
253 -> 255 ;
256 [label="entropy = 0.0\nsamples = 40\nvalue = [40, 0]"] ;
252 -> 256 ;
257 [label="peakOffPeakRatioChangePct <= -6.024\nentropy = 0.722\nsamples = 5\nvalue = [1, 4]"] ;
235 -> 257 ;
258 [label="entropy = 0.0\nsamples = 1\nvalue = [1, 0]"] ;
257 -> 258 ;
259 [label="entropy = 0.0\nsamples = 4\nvalue = [0, 4]"] ;
257 -> 259 ;
260 [label="billAmountChangePct <= 0.341\nentropy = 0.863\nsamples = 7\nvalue = [2, 5]"] ;
188 -> 260 ;
261 [label="entropy = 0.0\nsamples = 1\nvalue = [1, 0]"] ;
260 -> 261 ;
262 [label="peakOffPeakRatioChangePct <= -11.375\nentropy = 0.65\nsamples = 6\nvalue = [1, 5]"] ;
260 -> 262 ;
263 [label="entropy = 0.0\nsamples = 1\nvalue = [1, 0]"] ;
262 -> 263 ;
264 [label="entropy = 0.0\nsamples = 5\nvalue = [0, 5]"] ;
262 -> 264 ;
265 [label="lifeTime <= 14.5\nentropy = 0.989\nsamples = 1269\nvalue = [712, 557]"] ;
1 -> 265 ;
266 [label="lifeTime <= 10.5\nentropy = 0.999\nsamples = 486\nvalue = [233, 253]"] ;
265 -> 266 ;
267 [label="avgBill <= 186.495\nentropy = 0.952\nsamples = 194\nvalue = [122, 72]"] ;
266 -> 267 ;
268 [label="peakOffPeakRatioChangePct <= 15.125\nentropy = 0.935\nsamples = 188\nvalue = [122, 66]"] ;
267 -> 268 ;
269 [label="peakOffPeakRatioChangePct <= 7.016\nentropy = 0.948\nsamples = 180\nvalue = [114, 66]"] ;
268 -> 269 ;
270 [label="newFrequentNumbers <= 0.5\nentropy = 0.902\nsamples = 148\nvalue = [101, 47]"] ;
269 -> 270 ;
271 [label="avgBill <= 30.25\nentropy = 0.937\nsamples = 130\nvalue = [84, 46]"] ;
270 -> 271 ;
272 [label="avgReceivedMins <= 92.865\nentropy = 0.353\nsamples = 15\nvalue = [14, 1]"] ;
271 -> 272 ;
273 [label="entropy = 0.0\nsamples = 13\nvalue = [13, 0]"] ;
272 -> 273 ;
274 [label="lifeTime <= 7.5\nentropy = 1.0\nsamples = 2\nvalue = [1, 1]"] ;
272 -> 274 ;
275 [label="entropy = 0.0\nsamples = 1\nvalue = [0, 1]"] ;
274 -> 275 ;
276 [label="entropy = 0.0\nsamples = 1\nvalue = [1, 0]"] ;
274 -> 276 ;
277 [label="avgBill <= 67.65\nentropy = 0.966\nsamples = 115\nvalue = [70, 45]"] ;
271 -> 277 ;
278 [label="billAmountChangePct <= -0.347\nentropy = 1.0\nsamples = 65\nvalue = [32, 33]"] ;
277 -> 278 ;
279 [label="avgRoamCalls <= 6.455\nentropy = 0.503\nsamples = 9\nvalue = [1, 8]"] ;
278 -> 279 ;
280 [label="entropy = 0.0\nsamples = 8\nvalue = [0, 8]"] ;
279 -> 280 ;
281 [label="entropy = 0.0\nsamples = 1\nvalue = [1, 0]"] ;
279 -> 281 ;
282 [label="avgRoamCalls <= 3.085\nentropy = 0.992\nsamples = 56\nvalue = [31, 25]"] ;
278 -> 282 ;
283 [label="income <= 3.5\nentropy = 0.973\nsamples = 52\nvalue = [31, 21]"] ;
282 -> 283 ;
284 [label="billAmountChangePct <= 0.055\nentropy = 0.811\nsamples = 28\nvalue = [21, 7]"] ;
283 -> 284 ;
285 [label="handsetAge <= 167.5\nentropy = 0.964\nsamples = 18\nvalue = [11, 7]"] ;
284 -> 285 ;
286 [label="avgBill <= 43.75\nentropy = 1.0\nsamples = 14\nvalue = [7, 7]"] ;
285 -> 286 ;
287 [label="handsetAge <= 133.0\nentropy = 0.65\nsamples = 6\nvalue = [1, 5]"] ;
286 -> 287 ;
288 [label="entropy = 0.0\nsamples = 5\nvalue = [0, 5]"] ;
287 -> 288 ;
289 [label="entropy = 0.0\nsamples = 1\nvalue = [1, 0]"] ;
287 -> 289 ;
290 [label="avgOutCalls <= 10.335\nentropy = 0.811\nsamples = 8\nvalue = [6, 2]"] ;
286 -> 290 ;
291 [label="entropy = 0.0\nsamples = 2\nvalue = [0, 2]"] ;
290 -> 291 ;
292 [label="entropy = 0.0\nsamples = 6\nvalue = [6, 0]"] ;
290 -> 292 ;
293 [label="entropy = 0.0\nsamples = 4\nvalue = [4, 0]"] ;
285 -> 293 ;
294 [label="entropy = 0.0\nsamples = 10\nvalue = [10, 0]"] ;
284 -> 294 ;
295 [label="handsetAge <= 186.0\nentropy = 0.98\nsamples = 24\nvalue = [10, 14]"] ;
283 -> 295 ;
296 [label="avgOutCalls <= 94.165\nentropy = 0.722\nsamples = 15\nvalue = [3, 12]"] ;
295 -> 296 ;
297 [label="handsetAge <= 50.0\nentropy = 0.391\nsamples = 13\nvalue = [1, 12]"] ;
296 -> 297 ;
298 [label="entropy = 0.0\nsamples = 1\nvalue = [1, 0]"] ;
297 -> 298 ;
299 [label="entropy = 0.0\nsamples = 12\nvalue = [0, 12]"] ;
297 -> 299 ;
300 [label="entropy = 0.0\nsamples = 2\nvalue = [2, 0]"] ;
296 -> 300 ;
301 [label="currentHandsetPrice <= 64.99\nentropy = 0.764\nsamples = 9\nvalue = [7, 2]"] ;
295 -> 301 ;
302 [label="entropy = 0.0\nsamples = 2\nvalue = [0, 2]"] ;
301 -> 302 ;
303 [label="entropy = 0.0\nsamples = 7\nvalue = [7, 0]"] ;
301 -> 303 ;
304 [label="entropy = 0.0\nsamples = 4\nvalue = [0, 4]"] ;
282 -> 304 ;
305 [label="avgBill <= 95.295\nentropy = 0.795\nsamples = 50\nvalue = [38, 12]"] ;
277 -> 305 ;
306 [label="billAmountChangePct <= -0.565\nentropy = 0.459\nsamples = 31\nvalue = [28, 3]"] ;
305 -> 306 ;
307 [label="avgInCalls <= 13.335\nentropy = 0.918\nsamples = 9\nvalue = [6, 3]"] ;
306 -> 307 ;
308 [label="avgInCalls <= 4.0\nentropy = 0.811\nsamples = 4\nvalue = [1, 3]"] ;
307 -> 308 ;
309 [label="entropy = 0.0\nsamples = 1\nvalue = [1, 0]"] ;
308 -> 309 ;
310 [label="entropy = 0.0\nsamples = 3\nvalue = [0, 3]"] ;
308 -> 310 ;
311 [label="entropy = 0.0\nsamples = 5\nvalue = [5, 0]"] ;
307 -> 311 ;
312 [label="entropy = 0.0\nsamples = 22\nvalue = [22, 0]"] ;
306 -> 312 ;
313 [label="avgInCalls <= 33.5\nentropy = 0.998\nsamples = 19\nvalue = [10, 9]"] ;
305 -> 313 ;
314 [label="avgOverBundleMins <= 77.375\nentropy = 0.811\nsamples = 12\nvalue = [3, 9]"] ;
313 -> 314 ;
315 [label="lifeTime <= 9.0\nentropy = 0.811\nsamples = 4\nvalue = [3, 1]"] ;
314 -> 315 ;
316 [label="entropy = 0.0\nsamples = 3\nvalue = [3, 0]"] ;
315 -> 316 ;
317 [label="entropy = 0.0\nsamples = 1\nvalue = [0, 1]"] ;
315 -> 317 ;
318 [label="entropy = 0.0\nsamples = 8\nvalue = [0, 8]"] ;
314 -> 318 ;
319 [label="entropy = 0.0\nsamples = 7\nvalue = [7, 0]"] ;
313 -> 319 ;
320 [label="billAmountChangePct <= 1.222\nentropy = 0.31\nsamples = 18\nvalue = [17, 1]"] ;
270 -> 320 ;
321 [label="entropy = 0.0\nsamples = 17\nvalue = [17, 0]"] ;
320 -> 321 ;
322 [label="entropy = 0.0\nsamples = 1\nvalue = [0, 1]"] ;
320 -> 322 ;
323 [label="age <= 39.0\nentropy = 0.974\nsamples = 32\nvalue = [13, 19]"] ;
269 -> 323 ;
324 [label="billAmountChangePct <= -0.02\nentropy = 0.811\nsamples = 24\nvalue = [6, 18]"] ;
323 -> 324 ;
325 [label="entropy = 0.0\nsamples = 11\nvalue = [0, 11]"] ;
324 -> 325 ;
326 [label="avgBill <= 75.245\nentropy = 0.996\nsamples = 13\nvalue = [6, 7]"] ;
324 -> 326 ;
327 [label="avgOverBundleMins <= 0.125\nentropy = 0.863\nsamples = 7\nvalue = [5, 2]"] ;
326 -> 327 ;
328 [label="entropy = 0.0\nsamples = 2\nvalue = [0, 2]"] ;
327 -> 328 ;
329 [label="entropy = 0.0\nsamples = 5\nvalue = [5, 0]"] ;
327 -> 329 ;
330 [label="handsetAge <= 47.5\nentropy = 0.65\nsamples = 6\nvalue = [1, 5]"] ;
326 -> 330 ;
331 [label="entropy = 0.0\nsamples = 1\nvalue = [1, 0]"] ;
330 -> 331 ;
332 [label="entropy = 0.0\nsamples = 5\nvalue = [0, 5]"] ;
330 -> 332 ;
333 [label="smartPhone <= 0.5\nentropy = 0.544\nsamples = 8\nvalue = [7, 1]"] ;
323 -> 333 ;
334 [label="entropy = 0.0\nsamples = 1\nvalue = [0, 1]"] ;
333 -> 334 ;
335 [label="entropy = 0.0\nsamples = 7\nvalue = [7, 0]"] ;
333 -> 335 ;
336 [label="entropy = 0.0\nsamples = 8\nvalue = [8, 0]"] ;
268 -> 336 ;
337 [label="entropy = 0.0\nsamples = 6\nvalue = [0, 6]"] ;
267 -> 337 ;
338 [label="age <= 59.0\nentropy = 0.958\nsamples = 292\nvalue = [111, 181]"] ;
266 -> 338 ;
339 [label="billAmountChangePct <= -0.517\nentropy = 0.966\nsamples = 283\nvalue = [111, 172]"] ;
338 -> 339 ;
340 [label="avgRoamCalls <= 1.03\nentropy = 0.768\nsamples = 49\nvalue = [11, 38]"] ;
339 -> 340 ;
341 [label="handsetAge <= 291.5\nentropy = 0.888\nsamples = 36\nvalue = [11, 25]"] ;
340 -> 341 ;
342 [label="peakOffPeakRatio <= 0.593\nentropy = 0.834\nsamples = 34\nvalue = [9, 25]"] ;
341 -> 342 ;
343 [label="currentHandsetPrice <= 79.99\nentropy = 0.918\nsamples = 6\nvalue = [4, 2]"] ;
342 -> 343 ;
344 [label="entropy = 0.0\nsamples = 2\nvalue = [0, 2]"] ;
343 -> 344 ;
345 [label="entropy = 0.0\nsamples = 4\nvalue = [4, 0]"] ;
343 -> 345 ;
346 [label="avgBill <= 115.08\nentropy = 0.677\nsamples = 28\nvalue = [5, 23]"] ;
342 -> 346 ;
347 [label="avgBill <= 23.675\nentropy = 0.297\nsamples = 19\nvalue = [1, 18]"] ;
346 -> 347 ;
348 [label="entropy = 0.0\nsamples = 1\nvalue = [1, 0]"] ;
347 -> 348 ;
349 [label="entropy = 0.0\nsamples = 18\nvalue = [0, 18]"] ;
347 -> 349 ;
350 [label="income <= 4.0\nentropy = 0.991\nsamples = 9\nvalue = [4, 5]"] ;
346 -> 350 ;
351 [label="entropy = 0.0\nsamples = 4\nvalue = [0, 4]"] ;
350 -> 351 ;
352 [label="avgInCalls <= 44.83\nentropy = 0.722\nsamples = 5\nvalue = [4, 1]"] ;
350 -> 352 ;
353 [label="entropy = 0.0\nsamples = 4\nvalue = [4, 0]"] ;
352 -> 353 ;
354 [label="entropy = 0.0\nsamples = 1\nvalue = [0, 1]"] ;
352 -> 354 ;
355 [label="entropy = 0.0\nsamples = 2\nvalue = [2, 0]"] ;
341 -> 355 ;
356 [label="entropy = 0.0\nsamples = 13\nvalue = [0, 13]"] ;
340 -> 356 ;
357 [label="peakOffPeakRatioChangePct <= -17.907\nentropy = 0.985\nsamples = 234\nvalue = [100, 134]"] ;
339 -> 357 ;
358 [label="entropy = 0.0\nsamples = 5\nvalue = [5, 0]"] ;
357 -> 358 ;
359 [label="peakOffPeakRatioChangePct <= 6.283\nentropy = 0.979\nsamples = 229\nvalue = [95, 134]"] ;
357 -> 359 ;
360 [label="avgOutCalls <= 50.335\nentropy = 0.947\nsamples = 170\nvalue = [62, 108]"] ;
359 -> 360 ;
361 [label="billAmountChangePct <= 0.022\nentropy = 0.981\nsamples = 124\nvalue = [52, 72]"] ;
360 -> 361 ;
362 [label="peakOffPeakRatioChangePct <= -9.903\nentropy = 0.922\nsamples = 89\nvalue = [30, 59]"] ;
361 -> 362 ;
363 [label="avgDroppedCalls <= 5.165\nentropy = 0.503\nsamples = 18\nvalue = [2, 16]"] ;
362 -> 363 ;
364 [label="handsetAge <= 139.0\nentropy = 0.971\nsamples = 5\nvalue = [2, 3]"] ;
363 -> 364 ;
365 [label="entropy = 0.0\nsamples = 2\nvalue = [2, 0]"] ;
364 -> 365 ;
366 [label="entropy = 0.0\nsamples = 3\nvalue = [0, 3]"] ;
364 -> 366 ;
367 [label="entropy = 0.0\nsamples = 13\nvalue = [0, 13]"] ;
363 -> 367 ;
368 [label="avgBill <= 24.06\nentropy = 0.968\nsamples = 71\nvalue = [28, 43]"] ;
362 -> 368 ;
369 [label="entropy = 0.0\nsamples = 6\nvalue = [0, 6]"] ;
368 -> 369 ;
370 [label="peakOffPeakRatioChangePct <= 2.66\nentropy = 0.986\nsamples = 65\nvalue = [28, 37]"] ;
368 -> 370 ;
371 [label="callMinutesChangePct <= -1.81\nentropy = 1.0\nsamples = 55\nvalue = [27, 28]"] ;
370 -> 371 ;
372 [label="avgReceivedMins <= 117.8\nentropy = 0.837\nsamples = 15\nvalue = [4, 11]"] ;
371 -> 372 ;
373 [label="entropy = 0.0\nsamples = 6\nvalue = [0, 6]"] ;
372 -> 373 ;
374 [label="handsetAge <= 106.5\nentropy = 0.991\nsamples = 9\nvalue = [4, 5]"] ;
372 -> 374 ;
375 [label="entropy = 0.0\nsamples = 3\nvalue = [3, 0]"] ;
374 -> 375 ;
376 [label="avgDroppedCalls <= 25.835\nentropy = 0.65\nsamples = 6\nvalue = [1, 5]"] ;
374 -> 376 ;
377 [label="entropy = 0.0\nsamples = 5\nvalue = [0, 5]"] ;
376 -> 377 ;
378 [label="entropy = 0.0\nsamples = 1\nvalue = [1, 0]"] ;
376 -> 378 ;
379 [label="callMinutesChangePct <= 0.158\nentropy = 0.984\nsamples = 40\nvalue = [23, 17]"] ;
371 -> 379 ;
380 [label="handsetAge <= 9.5\nentropy = 0.792\nsamples = 21\nvalue = [16, 5]"] ;
379 -> 380 ;
381 [label="entropy = 0.0\nsamples = 2\nvalue = [0, 2]"] ;
380 -> 381 ;
382 [label="avgReceivedMins <= 43.87\nentropy = 0.629\nsamples = 19\nvalue = [16, 3]"] ;
380 -> 382 ;
383 [label="avgRoamCalls <= 0.05\nentropy = 0.881\nsamples = 10\nvalue = [7, 3]"] ;
382 -> 383 ;
384 [label="avgInCalls <= 2.5\nentropy = 0.544\nsamples = 8\nvalue = [7, 1]"] ;
383 -> 384 ;
385 [label="entropy = 0.0\nsamples = 7\nvalue = [7, 0]"] ;
384 -> 385 ;
386 [label="entropy = 0.0\nsamples = 1\nvalue = [0, 1]"] ;
384 -> 386 ;
387 [label="entropy = 0.0\nsamples = 2\nvalue = [0, 2]"] ;
383 -> 387 ;
388 [label="entropy = 0.0\nsamples = 9\nvalue = [9, 0]"] ;
382 -> 388 ;
389 [label="avgInCalls <= 1.0\nentropy = 0.949\nsamples = 19\nvalue = [7, 12]"] ;
379 -> 389 ;
390 [label="entropy = 0.0\nsamples = 6\nvalue = [0, 6]"] ;
389 -> 390 ;
391 [label="avgOverBundleMins <= 9.875\nentropy = 0.996\nsamples = 13\nvalue = [7, 6]"] ;
389 -> 391 ;
392 [label="avgReceivedMins <= 74.865\nentropy = 0.918\nsamples = 9\nvalue = [3, 6]"] ;
391 -> 392 ;
393 [label="peakOffPeakRatioChangePct <= -5.162\nentropy = 0.811\nsamples = 4\nvalue = [3, 1]"] ;
392 -> 393 ;
394 [label="entropy = 0.0\nsamples = 1\nvalue = [0, 1]"] ;
393 -> 394 ;
395 [label="entropy = 0.0\nsamples = 3\nvalue = [3, 0]"] ;
393 -> 395 ;
396 [label="entropy = 0.0\nsamples = 5\nvalue = [0, 5]"] ;
392 -> 396 ;
397 [label="entropy = 0.0\nsamples = 4\nvalue = [4, 0]"] ;
391 -> 397 ;
398 [label="avgBill <= 27.935\nentropy = 0.469\nsamples = 10\nvalue = [1, 9]"] ;
370 -> 398 ;
399 [label="entropy = 0.0\nsamples = 1\nvalue = [1, 0]"] ;
398 -> 399 ;
400 [label="entropy = 0.0\nsamples = 9\nvalue = [0, 9]"] ;
398 -> 400 ;
401 [label="peakOffPeakRatio <= 1.593\nentropy = 0.952\nsamples = 35\nvalue = [22, 13]"] ;
361 -> 401 ;
402 [label="billAmountChangePct <= 0.074\nentropy = 0.988\nsamples = 23\nvalue = [10, 13]"] ;
401 -> 402 ;
403 [label="entropy = 0.0\nsamples = 3\nvalue = [3, 0]"] ;
402 -> 403 ;
404 [label="peakOffPeakRatioChangePct <= -8.198\nentropy = 0.934\nsamples = 20\nvalue = [7, 13]"] ;
402 -> 404 ;
405 [label="avgRoamCalls <= 3.965\nentropy = 0.722\nsamples = 5\nvalue = [4, 1]"] ;
404 -> 405 ;
406 [label="entropy = 0.0\nsamples = 4\nvalue = [4, 0]"] ;
405 -> 406 ;
407 [label="entropy = 0.0\nsamples = 1\nvalue = [0, 1]"] ;
405 -> 407 ;
408 [label="peakOffPeakRatioChangePct <= -1.238\nentropy = 0.722\nsamples = 15\nvalue = [3, 12]"] ;
404 -> 408 ;
409 [label="entropy = 0.0\nsamples = 7\nvalue = [0, 7]"] ;
408 -> 409 ;
410 [label="avgDroppedCalls <= 7.665\nentropy = 0.954\nsamples = 8\nvalue = [3, 5]"] ;
408 -> 410 ;
411 [label="entropy = 0.0\nsamples = 2\nvalue = [2, 0]"] ;
410 -> 411 ;
412 [label="avgOverBundleMins <= 0.5\nentropy = 0.65\nsamples = 6\nvalue = [1, 5]"] ;
410 -> 412 ;
413 [label="entropy = 0.0\nsamples = 1\nvalue = [1, 0]"] ;
412 -> 413 ;
414 [label="entropy = 0.0\nsamples = 5\nvalue = [0, 5]"] ;
412 -> 414 ;
415 [label="entropy = 0.0\nsamples = 12\nvalue = [12, 0]"] ;
401 -> 415 ;
416 [label="callMinutesChangePct <= -9.835\nentropy = 0.755\nsamples = 46\nvalue = [10, 36]"] ;
360 -> 416 ;
417 [label="handsetAge <= 197.5\nentropy = 0.863\nsamples = 7\nvalue = [5, 2]"] ;
416 -> 417 ;
418 [label="entropy = 0.0\nsamples = 5\nvalue = [5, 0]"] ;
417 -> 418 ;
419 [label="entropy = 0.0\nsamples = 2\nvalue = [0, 2]"] ;
417 -> 419 ;
420 [label="peakOffPeakRatioChangePct <= -3.344\nentropy = 0.552\nsamples = 39\nvalue = [5, 34]"] ;
416 -> 420 ;
421 [label="income <= 3.5\nentropy = 0.896\nsamples = 16\nvalue = [5, 11]"] ;
420 -> 421 ;
422 [label="peakOffPeakRatioChangePct <= -11.469\nentropy = 0.991\nsamples = 9\nvalue = [5, 4]"] ;
421 -> 422 ;
423 [label="entropy = 0.0\nsamples = 4\nvalue = [0, 4]"] ;
422 -> 423 ;
424 [label="entropy = 0.0\nsamples = 5\nvalue = [5, 0]"] ;
422 -> 424 ;
425 [label="entropy = 0.0\nsamples = 7\nvalue = [0, 7]"] ;
421 -> 425 ;
426 [label="entropy = 0.0\nsamples = 23\nvalue = [0, 23]"] ;
420 -> 426 ;
427 [label="avgReceivedMins <= 214.065\nentropy = 0.99\nsamples = 59\nvalue = [33, 26]"] ;
359 -> 427 ;
428 [label="callMinutesChangePct <= -3.67\nentropy = 0.985\nsamples = 42\nvalue = [18, 24]"] ;
427 -> 428 ;
429 [label="entropy = 0.0\nsamples = 6\nvalue = [0, 6]"] ;
428 -> 429 ;
430 [label="handsetAge <= 83.5\nentropy = 1.0\nsamples = 36\nvalue = [18, 18]"] ;
428 -> 430 ;
431 [label="avgDroppedCalls <= 32.835\nentropy = 0.65\nsamples = 12\nvalue = [10, 2]"] ;
430 -> 431 ;
432 [label="entropy = 0.0\nsamples = 10\nvalue = [10, 0]"] ;
431 -> 432 ;
433 [label="entropy = 0.0\nsamples = 2\nvalue = [0, 2]"] ;
431 -> 433 ;
434 [label="avgBill <= 63.3\nentropy = 0.918\nsamples = 24\nvalue = [8, 16]"] ;
430 -> 434 ;
435 [label="billAmountChangePct <= 0.0\nentropy = 0.592\nsamples = 14\nvalue = [2, 12]"] ;
434 -> 435 ;
436 [label="entropy = 0.0\nsamples = 9\nvalue = [0, 9]"] ;
435 -> 436 ;
437 [label="billAmountChangePct <= 0.036\nentropy = 0.971\nsamples = 5\nvalue = [2, 3]"] ;
435 -> 437 ;
438 [label="entropy = 0.0\nsamples = 2\nvalue = [2, 0]"] ;
437 -> 438 ;
439 [label="entropy = 0.0\nsamples = 3\nvalue = [0, 3]"] ;
437 -> 439 ;
440 [label="billAmountChangePct <= 0.11\nentropy = 0.971\nsamples = 10\nvalue = [6, 4]"] ;
434 -> 440 ;
441 [label="entropy = 0.0\nsamples = 5\nvalue = [5, 0]"] ;
440 -> 441 ;
442 [label="callMinutesChangePct <= 6.355\nentropy = 0.722\nsamples = 5\nvalue = [1, 4]"] ;
440 -> 442 ;
443 [label="entropy = 0.0\nsamples = 1\nvalue = [1, 0]"] ;
442 -> 443 ;
444 [label="entropy = 0.0\nsamples = 4\nvalue = [0, 4]"] ;
442 -> 444 ;
445 [label="numHandsets <= 3.5\nentropy = 0.523\nsamples = 17\nvalue = [15, 2]"] ;
427 -> 445 ;
446 [label="entropy = 0.0\nsamples = 15\nvalue = [15, 0]"] ;
445 -> 446 ;
447 [label="entropy = 0.0\nsamples = 2\nvalue = [0, 2]"] ;
445 -> 447 ;
448 [label="entropy = 0.0\nsamples = 9\nvalue = [0, 9]"] ;
338 -> 448 ;
449 [label="avgOverBundleMins <= 236.875\nentropy = 0.964\nsamples = 783\nvalue = [479, 304]"] ;
265 -> 449 ;
450 [label="avgOutCalls <= 105.335\nentropy = 0.951\nsamples = 723\nvalue = [455, 268]"] ;
449 -> 450 ;
451 [label="billAmountChangePct <= -1.11\nentropy = 0.962\nsamples = 676\nvalue = [415, 261]"] ;
450 -> 451 ;
452 [label="avgOutCalls <= 92.5\nentropy = 0.469\nsamples = 20\nvalue = [18, 2]"] ;
451 -> 452 ;
453 [label="entropy = 0.0\nsamples = 18\nvalue = [18, 0]"] ;
452 -> 453 ;
454 [label="entropy = 0.0\nsamples = 2\nvalue = [0, 2]"] ;
452 -> 454 ;
455 [label="callMinutesChangePct <= -4.843\nentropy = 0.968\nsamples = 656\nvalue = [397, 259]"] ;
451 -> 455 ;
456 [label="avgBill <= 121.5\nentropy = 0.961\nsamples = 65\nvalue = [25, 40]"] ;
455 -> 456 ;
457 [label="billAmountChangePct <= -0.287\nentropy = 0.907\nsamples = 59\nvalue = [19, 40]"] ;
456 -> 457 ;
458 [label="avgInCalls <= 0.5\nentropy = 0.555\nsamples = 31\nvalue = [4, 27]"] ;
457 -> 458 ;
459 [label="avgBill <= 84.405\nentropy = 0.985\nsamples = 7\nvalue = [3, 4]"] ;
458 -> 459 ;
460 [label="entropy = 0.0\nsamples = 4\nvalue = [0, 4]"] ;
459 -> 460 ;
461 [label="entropy = 0.0\nsamples = 3\nvalue = [3, 0]"] ;
459 -> 461 ;
462 [label="avgDroppedCalls <= 110.335\nentropy = 0.25\nsamples = 24\nvalue = [1, 23]"] ;
458 -> 462 ;
463 [label="entropy = 0.0\nsamples = 23\nvalue = [0, 23]"] ;
462 -> 463 ;
464 [label="entropy = 0.0\nsamples = 1\nvalue = [1, 0]"] ;
462 -> 464 ;
465 [label="peakOffPeakRatio <= 2.625\nentropy = 0.996\nsamples = 28\nvalue = [15, 13]"] ;
457 -> 465 ;
466 [label="avgOutCalls <= 33.165\nentropy = 0.932\nsamples = 23\nvalue = [15, 8]"] ;
465 -> 466 ;
467 [label="entropy = 0.0\nsamples = 6\nvalue = [6, 0]"] ;
466 -> 467 ;
468 [label="income <= 8.0\nentropy = 0.998\nsamples = 17\nvalue = [9, 8]"] ;
466 -> 468 ;
469 [label="peakOffPeakRatioChangePct <= -4.739\nentropy = 0.961\nsamples = 13\nvalue = [5, 8]"] ;
468 -> 469 ;
470 [label="entropy = 0.0\nsamples = 5\nvalue = [0, 5]"] ;
469 -> 470 ;
471 [label="avgBill <= 91.0\nentropy = 0.954\nsamples = 8\nvalue = [5, 3]"] ;
469 -> 471 ;
472 [label="handsetAge <= 76.5\nentropy = 0.65\nsamples = 6\nvalue = [5, 1]"] ;
471 -> 472 ;
473 [label="entropy = 0.0\nsamples = 1\nvalue = [0, 1]"] ;
472 -> 473 ;
474 [label="entropy = 0.0\nsamples = 5\nvalue = [5, 0]"] ;
472 -> 474 ;
475 [label="entropy = 0.0\nsamples = 2\nvalue = [0, 2]"] ;
471 -> 475 ;
476 [label="entropy = 0.0\nsamples = 4\nvalue = [4, 0]"] ;
468 -> 476 ;
477 [label="entropy = 0.0\nsamples = 5\nvalue = [0, 5]"] ;
465 -> 477 ;
478 [label="entropy = 0.0\nsamples = 6\nvalue = [6, 0]"] ;
456 -> 478 ;
479 [label="handsetAge <= 209.5\nentropy = 0.951\nsamples = 591\nvalue = [372, 219]"] ;
455 -> 479 ;
480 [label="avgDroppedCalls <= 41.67\nentropy = 0.914\nsamples = 422\nvalue = [283, 139]"] ;
479 -> 480 ;
481 [label="avgInCalls <= 0.835\nentropy = 0.902\nsamples = 412\nvalue = [281, 131]"] ;
480 -> 481 ;
482 [label="peakOffPeakRatio <= 1.341\nentropy = 0.983\nsamples = 116\nvalue = [67, 49]"] ;
481 -> 482 ;
483 [label="age <= 53.0\nentropy = 0.879\nsamples = 57\nvalue = [40, 17]"] ;
482 -> 483 ;
484 [label="avgOverBundleMins <= 12.875\nentropy = 0.944\nsamples = 47\nvalue = [30, 17]"] ;
483 -> 484 ;
485 [label="avgDroppedCalls <= 16.0\nentropy = 0.988\nsamples = 39\nvalue = [22, 17]"] ;
484 -> 485 ;
486 [label="avgReceivedMins <= 13.845\nentropy = 0.952\nsamples = 35\nvalue = [22, 13]"] ;
485 -> 486 ;
487 [label="callMinutesChangePct <= 0.22\nentropy = 0.996\nsamples = 28\nvalue = [15, 13]"] ;
486 -> 487 ;
488 [label="avgBill <= 53.475\nentropy = 0.971\nsamples = 20\nvalue = [8, 12]"] ;
487 -> 488 ;
489 [label="income <= 8.5\nentropy = 1.0\nsamples = 16\nvalue = [8, 8]"] ;
488 -> 489 ;
490 [label="billAmountChangePct <= 0.004\nentropy = 0.961\nsamples = 13\nvalue = [8, 5]"] ;
489 -> 490 ;
491 [label="handsetAge <= 121.5\nentropy = 0.845\nsamples = 11\nvalue = [8, 3]"] ;
490 -> 491 ;
492 [label="lifeTime <= 18.0\nentropy = 0.985\nsamples = 7\nvalue = [4, 3]"] ;
491 -> 492 ;
493 [label="entropy = 0.0\nsamples = 3\nvalue = [3, 0]"] ;
492 -> 493 ;
494 [label="age <= 51.0\nentropy = 0.811\nsamples = 4\nvalue = [1, 3]"] ;
492 -> 494 ;
495 [label="entropy = 0.0\nsamples = 3\nvalue = [0, 3]"] ;
494 -> 495 ;
496 [label="entropy = 0.0\nsamples = 1\nvalue = [1, 0]"] ;
494 -> 496 ;
497 [label="entropy = 0.0\nsamples = 4\nvalue = [4, 0]"] ;
491 -> 497 ;
498 [label="entropy = 0.0\nsamples = 2\nvalue = [0, 2]"] ;
490 -> 498 ;
499 [label="entropy = 0.0\nsamples = 3\nvalue = [0, 3]"] ;
489 -> 499 ;
500 [label="entropy = 0.0\nsamples = 4\nvalue = [0, 4]"] ;
488 -> 500 ;
501 [label="peakOffPeakRatio <= 0.828\nentropy = 0.544\nsamples = 8\nvalue = [7, 1]"] ;
487 -> 501 ;
502 [label="entropy = 0.0\nsamples = 7\nvalue = [7, 0]"] ;
501 -> 502 ;
503 [label="entropy = 0.0\nsamples = 1\nvalue = [0, 1]"] ;
501 -> 503 ;
504 [label="entropy = 0.0\nsamples = 7\nvalue = [7, 0]"] ;
486 -> 504 ;
505 [label="entropy = 0.0\nsamples = 4\nvalue = [0, 4]"] ;
485 -> 505 ;
506 [label="entropy = 0.0\nsamples = 8\nvalue = [8, 0]"] ;
484 -> 506 ;
507 [label="entropy = 0.0\nsamples = 10\nvalue = [10, 0]"] ;
483 -> 507 ;
508 [label="peakOffPeakRatio <= 2.237\nentropy = 0.995\nsamples = 59\nvalue = [27, 32]"] ;
482 -> 508 ;
509 [label="lifeTime <= 27.0\nentropy = 0.61\nsamples = 20\nvalue = [3, 17]"] ;
508 -> 509 ;
510 [label="entropy = 0.0\nsamples = 15\nvalue = [0, 15]"] ;
509 -> 510 ;
511 [label="peakOffPeakRatioChangePct <= -8.277\nentropy = 0.971\nsamples = 5\nvalue = [3, 2]"] ;
509 -> 511 ;
512 [label="entropy = 0.0\nsamples = 2\nvalue = [0, 2]"] ;
511 -> 512 ;
513 [label="entropy = 0.0\nsamples = 3\nvalue = [3, 0]"] ;
511 -> 513 ;
514 [label="peakOffPeakRatioChangePct <= -11.004\nentropy = 0.961\nsamples = 39\nvalue = [24, 15]"] ;
508 -> 514 ;
515 [label="entropy = 0.0\nsamples = 7\nvalue = [7, 0]"] ;
514 -> 515 ;
516 [label="peakOffPeakRatio <= 3.063\nentropy = 0.997\nsamples = 32\nvalue = [17, 15]"] ;
514 -> 516 ;
517 [label="billAmountChangePct <= -0.271\nentropy = 0.65\nsamples = 12\nvalue = [10, 2]"] ;
516 -> 517 ;
518 [label="age <= 40.0\nentropy = 1.0\nsamples = 4\nvalue = [2, 2]"] ;
517 -> 518 ;
519 [label="entropy = 0.0\nsamples = 2\nvalue = [0, 2]"] ;
518 -> 519 ;
520 [label="entropy = 0.0\nsamples = 2\nvalue = [2, 0]"] ;
518 -> 520 ;
521 [label="entropy = 0.0\nsamples = 8\nvalue = [8, 0]"] ;
517 -> 521 ;
522 [label="peakOffPeakRatio <= 3.924\nentropy = 0.934\nsamples = 20\nvalue = [7, 13]"] ;
516 -> 522 ;
523 [label="entropy = 0.0\nsamples = 5\nvalue = [0, 5]"] ;
522 -> 523 ;
524 [label="peakOffPeakRatio <= 4.325\nentropy = 0.997\nsamples = 15\nvalue = [7, 8]"] ;
522 -> 524 ;
525 [label="entropy = 0.0\nsamples = 3\nvalue = [3, 0]"] ;
524 -> 525 ;
526 [label="callMinutesChangePct <= 0.39\nentropy = 0.918\nsamples = 12\nvalue = [4, 8]"] ;
524 -> 526 ;
527 [label="entropy = 0.0\nsamples = 7\nvalue = [0, 7]"] ;
526 -> 527 ;
528 [label="avgReceivedMins <= 4.505\nentropy = 0.722\nsamples = 5\nvalue = [4, 1]"] ;
526 -> 528 ;
529 [label="entropy = 0.0\nsamples = 1\nvalue = [0, 1]"] ;
528 -> 529 ;
530 [label="entropy = 0.0\nsamples = 4\nvalue = [4, 0]"] ;
528 -> 530 ;
531 [label="avgInCalls <= 8.5\nentropy = 0.851\nsamples = 296\nvalue = [214, 82]"] ;
481 -> 531 ;
532 [label="avgRoamCalls <= 13.46\nentropy = 0.688\nsamples = 147\nvalue = [120, 27]"] ;
531 -> 532 ;
533 [label="avgOverBundleMins <= 197.125\nentropy = 0.65\nsamples = 144\nvalue = [120, 24]"] ;
532 -> 533 ;
534 [label="peakOffPeakRatio <= 0.688\nentropy = 0.622\nsamples = 142\nvalue = [120, 22]"] ;
533 -> 534 ;
535 [label="entropy = 0.0\nsamples = 18\nvalue = [18, 0]"] ;
534 -> 535 ;
536 [label="peakOffPeakRatioChangePct <= -18.452\nentropy = 0.674\nsamples = 124\nvalue = [102, 22]"] ;
534 -> 536 ;
537 [label="entropy = 0.0\nsamples = 2\nvalue = [0, 2]"] ;
536 -> 537 ;
538 [label="avgReceivedMins <= 10.75\nentropy = 0.644\nsamples = 122\nvalue = [102, 20]"] ;
536 -> 538 ;
539 [label="lifeTime <= 26.5\nentropy = 0.985\nsamples = 7\nvalue = [3, 4]"] ;
538 -> 539 ;
540 [label="entropy = 0.0\nsamples = 3\nvalue = [3, 0]"] ;
539 -> 540 ;
541 [label="entropy = 0.0\nsamples = 4\nvalue = [0, 4]"] ;
539 -> 541 ;
542 [label="peakOffPeakRatio <= 3.323\nentropy = 0.582\nsamples = 115\nvalue = [99, 16]"] ;
538 -> 542 ;
543 [label="lifeTime <= 18.5\nentropy = 0.675\nsamples = 90\nvalue = [74, 16]"] ;
542 -> 543 ;
544 [label="handsetAge <= 57.0\nentropy = 0.904\nsamples = 25\nvalue = [17, 8]"] ;
543 -> 544 ;
545 [label="entropy = 0.0\nsamples = 9\nvalue = [9, 0]"] ;
544 -> 545 ;
546 [label="avgBill <= 42.435\nentropy = 1.0\nsamples = 16\nvalue = [8, 8]"] ;
544 -> 546 ;
547 [label="entropy = 0.0\nsamples = 6\nvalue = [6, 0]"] ;
546 -> 547 ;
548 [label="lifeTime <= 15.5\nentropy = 0.722\nsamples = 10\nvalue = [2, 8]"] ;
546 -> 548 ;
549 [label="peakOffPeakRatio <= 2.541\nentropy = 0.918\nsamples = 3\nvalue = [2, 1]"] ;
548 -> 549 ;
550 [label="entropy = 0.0\nsamples = 2\nvalue = [2, 0]"] ;
549 -> 550 ;
551 [label="entropy = 0.0\nsamples = 1\nvalue = [0, 1]"] ;
549 -> 551 ;
552 [label="entropy = 0.0\nsamples = 7\nvalue = [0, 7]"] ;
548 -> 552 ;
553 [label="lifeTime <= 32.0\nentropy = 0.538\nsamples = 65\nvalue = [57, 8]"] ;
543 -> 553 ;
554 [label="avgOverBundleMins <= 119.75\nentropy = 0.323\nsamples = 51\nvalue = [48, 3]"] ;
553 -> 554 ;
555 [label="peakOffPeakRatio <= 0.712\nentropy = 0.151\nsamples = 46\nvalue = [45, 1]"] ;
554 -> 555 ;
556 [label="entropy = 0.0\nsamples = 1\nvalue = [0, 1]"] ;
555 -> 556 ;
557 [label="entropy = 0.0\nsamples = 45\nvalue = [45, 0]"] ;
555 -> 557 ;
558 [label="avgBill <= 97.48\nentropy = 0.971\nsamples = 5\nvalue = [3, 2]"] ;
554 -> 558 ;
559 [label="entropy = 0.0\nsamples = 2\nvalue = [0, 2]"] ;
558 -> 559 ;
560 [label="entropy = 0.0\nsamples = 3\nvalue = [3, 0]"] ;
558 -> 560 ;
561 [label="avgInCalls <= 1.5\nentropy = 0.94\nsamples = 14\nvalue = [9, 5]"] ;
553 -> 561 ;
562 [label="entropy = 0.0\nsamples = 2\nvalue = [0, 2]"] ;
561 -> 562 ;
563 [label="avgRoamCalls <= 0.05\nentropy = 0.811\nsamples = 12\nvalue = [9, 3]"] ;
561 -> 563 ;
564 [label="entropy = 0.0\nsamples = 6\nvalue = [6, 0]"] ;
563 -> 564 ;
565 [label="peakOffPeakRatioChangePct <= 2.747\nentropy = 1.0\nsamples = 6\nvalue = [3, 3]"] ;
563 -> 565 ;
566 [label="peakOffPeakRatioChangePct <= -8.393\nentropy = 0.811\nsamples = 4\nvalue = [3, 1]"] ;
565 -> 566 ;
567 [label="entropy = 0.0\nsamples = 1\nvalue = [0, 1]"] ;
566 -> 567 ;
568 [label="entropy = 0.0\nsamples = 3\nvalue = [3, 0]"] ;
566 -> 568 ;
569 [label="entropy = 0.0\nsamples = 2\nvalue = [0, 2]"] ;
565 -> 569 ;
570 [label="entropy = 0.0\nsamples = 25\nvalue = [25, 0]"] ;
542 -> 570 ;
571 [label="entropy = 0.0\nsamples = 2\nvalue = [0, 2]"] ;
533 -> 571 ;
572 [label="entropy = 0.0\nsamples = 3\nvalue = [0, 3]"] ;
532 -> 572 ;
573 [label="avgDroppedCalls <= 29.5\nentropy = 0.95\nsamples = 149\nvalue = [94, 55]"] ;
531 -> 573 ;
574 [label="handsetAge <= 7.5\nentropy = 0.965\nsamples = 141\nvalue = [86, 55]"] ;
573 -> 574 ;
575 [label="avgInCalls <= 10.835\nentropy = 0.391\nsamples = 13\nvalue = [12, 1]"] ;
574 -> 575 ;
576 [label="entropy = 0.0\nsamples = 1\nvalue = [0, 1]"] ;
575 -> 576 ;
577 [label="entropy = 0.0\nsamples = 12\nvalue = [12, 0]"] ;
575 -> 577 ;
578 [label="avgBill <= 134.99\nentropy = 0.982\nsamples = 128\nvalue = [74, 54]"] ;
574 -> 578 ;
579 [label="age <= 43.0\nentropy = 0.99\nsamples = 122\nvalue = [68, 54]"] ;
578 -> 579 ;
580 [label="avgRoamCalls <= 0.54\nentropy = 0.999\nsamples = 83\nvalue = [40, 43]"] ;
579 -> 580 ;
581 [label="peakOffPeakRatio <= 4.089\nentropy = 0.963\nsamples = 62\nvalue = [24, 38]"] ;
580 -> 581 ;
582 [label="avgOutCalls <= 41.0\nentropy = 0.912\nsamples = 55\nvalue = [18, 37]"] ;
581 -> 582 ;
583 [label="peakOffPeakRatio <= 2.21\nentropy = 0.997\nsamples = 30\nvalue = [14, 16]"] ;
582 -> 583 ;
584 [label="age <= 35.0\nentropy = 0.959\nsamples = 21\nvalue = [13, 8]"] ;
583 -> 584 ;
585 [label="avgOverBundleMins <= 29.625\nentropy = 0.811\nsamples = 16\nvalue = [12, 4]"] ;
584 -> 585 ;
586 [label="callMinutesChangePct <= 2.732\nentropy = 0.439\nsamples = 11\nvalue = [10, 1]"] ;
585 -> 586 ;
587 [label="entropy = 0.0\nsamples = 10\nvalue = [10, 0]"] ;
586 -> 587 ;
588 [label="entropy = 0.0\nsamples = 1\nvalue = [0, 1]"] ;
586 -> 588 ;
589 [label="avgOverBundleMins <= 64.5\nentropy = 0.971\nsamples = 5\nvalue = [2, 3]"] ;
585 -> 589 ;
590 [label="entropy = 0.0\nsamples = 3\nvalue = [0, 3]"] ;
589 -> 590 ;
591 [label="entropy = 0.0\nsamples = 2\nvalue = [2, 0]"] ;
589 -> 591 ;
592 [label="peakOffPeakRatioChangePct <= -2.946\nentropy = 0.722\nsamples = 5\nvalue = [1, 4]"] ;
584 -> 592 ;
593 [label="entropy = 0.0\nsamples = 1\nvalue = [1, 0]"] ;
592 -> 593 ;
594 [label="entropy = 0.0\nsamples = 4\nvalue = [0, 4]"] ;
592 -> 594 ;
595 [label="age <= 39.0\nentropy = 0.503\nsamples = 9\nvalue = [1, 8]"] ;
583 -> 595 ;
596 [label="entropy = 0.0\nsamples = 8\nvalue = [0, 8]"] ;
595 -> 596 ;
597 [label="entropy = 0.0\nsamples = 1\nvalue = [1, 0]"] ;
595 -> 597 ;
598 [label="peakOffPeakRatioChangePct <= -2.397\nentropy = 0.634\nsamples = 25\nvalue = [4, 21]"] ;
582 -> 598 ;
599 [label="billAmountChangePct <= -0.076\nentropy = 0.89\nsamples = 13\nvalue = [4, 9]"] ;
598 -> 599 ;
600 [label="entropy = 0.0\nsamples = 4\nvalue = [0, 4]"] ;
599 -> 600 ;
601 [label="age <= 35.0\nentropy = 0.991\nsamples = 9\nvalue = [4, 5]"] ;
599 -> 601 ;
602 [label="avgReceivedMins <= 377.715\nentropy = 0.918\nsamples = 6\nvalue = [4, 2]"] ;
601 -> 602 ;
603 [label="entropy = 0.0\nsamples = 4\nvalue = [4, 0]"] ;
602 -> 603 ;
604 [label="entropy = 0.0\nsamples = 2\nvalue = [0, 2]"] ;
602 -> 604 ;
605 [label="entropy = 0.0\nsamples = 3\nvalue = [0, 3]"] ;
601 -> 605 ;
606 [label="entropy = 0.0\nsamples = 12\nvalue = [0, 12]"] ;
598 -> 606 ;
607 [label="peakOffPeakRatio <= 8.104\nentropy = 0.592\nsamples = 7\nvalue = [6, 1]"] ;
581 -> 607 ;
608 [label="entropy = 0.0\nsamples = 6\nvalue = [6, 0]"] ;
607 -> 608 ;
609 [label="entropy = 0.0\nsamples = 1\nvalue = [0, 1]"] ;
607 -> 609 ;
610 [label="avgOutCalls <= 29.5\nentropy = 0.792\nsamples = 21\nvalue = [16, 5]"] ;
580 -> 610 ;
611 [label="entropy = 0.0\nsamples = 3\nvalue = [0, 3]"] ;
610 -> 611 ;
612 [label="avgOutCalls <= 78.0\nentropy = 0.503\nsamples = 18\nvalue = [16, 2]"] ;
610 -> 612 ;
613 [label="entropy = 0.0\nsamples = 15\nvalue = [15, 0]"] ;
612 -> 613 ;
614 [label="handsetAge <= 44.0\nentropy = 0.918\nsamples = 3\nvalue = [1, 2]"] ;
612 -> 614 ;
615 [label="entropy = 0.0\nsamples = 1\nvalue = [1, 0]"] ;
614 -> 615 ;
616 [label="entropy = 0.0\nsamples = 2\nvalue = [0, 2]"] ;
614 -> 616 ;
617 [label="peakOffPeakRatioChangePct <= 5.852\nentropy = 0.858\nsamples = 39\nvalue = [28, 11]"] ;
579 -> 617 ;
618 [label="peakOffPeakRatioChangePct <= -12.532\nentropy = 0.938\nsamples = 31\nvalue = [20, 11]"] ;
617 -> 618 ;
619 [label="entropy = 0.0\nsamples = 7\nvalue = [7, 0]"] ;
618 -> 619 ;
620 [label="handsetAge <= 46.0\nentropy = 0.995\nsamples = 24\nvalue = [13, 11]"] ;
618 -> 620 ;
621 [label="entropy = 0.0\nsamples = 6\nvalue = [6, 0]"] ;
620 -> 621 ;
622 [label="avgOverBundleMins <= 14.875\nentropy = 0.964\nsamples = 18\nvalue = [7, 11]"] ;
620 -> 622 ;
623 [label="entropy = 0.0\nsamples = 6\nvalue = [0, 6]"] ;
622 -> 623 ;
624 [label="handsetAge <= 63.5\nentropy = 0.98\nsamples = 12\nvalue = [7, 5]"] ;
622 -> 624 ;
625 [label="entropy = 0.0\nsamples = 3\nvalue = [0, 3]"] ;
624 -> 625 ;
626 [label="avgInCalls <= 32.835\nentropy = 0.764\nsamples = 9\nvalue = [7, 2]"] ;
624 -> 626 ;
627 [label="entropy = 0.0\nsamples = 6\nvalue = [6, 0]"] ;
626 -> 627 ;
628 [label="peakOffPeakRatio <= 0.589\nentropy = 0.918\nsamples = 3\nvalue = [1, 2]"] ;
626 -> 628 ;
629 [label="entropy = 0.0\nsamples = 1\nvalue = [1, 0]"] ;
628 -> 629 ;
630 [label="entropy = 0.0\nsamples = 2\nvalue = [0, 2]"] ;
628 -> 630 ;
631 [label="entropy = 0.0\nsamples = 8\nvalue = [8, 0]"] ;
617 -> 631 ;
632 [label="entropy = 0.0\nsamples = 6\nvalue = [6, 0]"] ;
578 -> 632 ;
633 [label="entropy = 0.0\nsamples = 8\nvalue = [8, 0]"] ;
573 -> 633 ;
634 [label="handsetAge <= 40.0\nentropy = 0.722\nsamples = 10\nvalue = [2, 8]"] ;
480 -> 634 ;
635 [label="entropy = 0.0\nsamples = 2\nvalue = [2, 0]"] ;
634 -> 635 ;
636 [label="entropy = 0.0\nsamples = 8\nvalue = [0, 8]"] ;
634 -> 636 ;
637 [label="smartPhone <= 0.5\nentropy = 0.998\nsamples = 169\nvalue = [89, 80]"] ;
479 -> 637 ;
638 [label="entropy = 0.0\nsamples = 5\nvalue = [0, 5]"] ;
637 -> 638 ;
639 [label="income <= 3.5\nentropy = 0.995\nsamples = 164\nvalue = [89, 75]"] ;
637 -> 639 ;
640 [label="avgInCalls <= 0.165\nentropy = 0.962\nsamples = 57\nvalue = [22, 35]"] ;
639 -> 640 ;
641 [label="entropy = 0.0\nsamples = 11\nvalue = [0, 11]"] ;
640 -> 641 ;
642 [label="avgOutCalls <= 17.335\nentropy = 0.999\nsamples = 46\nvalue = [22, 24]"] ;
640 -> 642 ;
643 [label="avgReceivedMins <= 122.325\nentropy = 0.696\nsamples = 16\nvalue = [13, 3]"] ;
642 -> 643 ;
644 [label="entropy = 0.0\nsamples = 12\nvalue = [12, 0]"] ;
643 -> 644 ;
645 [label="avgInCalls <= 11.335\nentropy = 0.811\nsamples = 4\nvalue = [1, 3]"] ;
643 -> 645 ;
646 [label="entropy = 0.0\nsamples = 3\nvalue = [0, 3]"] ;
645 -> 646 ;
647 [label="entropy = 0.0\nsamples = 1\nvalue = [1, 0]"] ;
645 -> 647 ;
648 [label="avgReceivedMins <= 347.82\nentropy = 0.881\nsamples = 30\nvalue = [9, 21]"] ;
642 -> 648 ;
649 [label="peakOffPeakRatioChangePct <= -1.304\nentropy = 0.764\nsamples = 27\nvalue = [6, 21]"] ;
648 -> 649 ;
650 [label="billAmountChangePct <= 0.002\nentropy = 0.985\nsamples = 14\nvalue = [6, 8]"] ;
649 -> 650 ;
651 [label="avgRoamCalls <= 0.47\nentropy = 0.918\nsamples = 9\nvalue = [6, 3]"] ;
650 -> 651 ;
652 [label="currentHandsetPrice <= 64.99\nentropy = 1.0\nsamples = 6\nvalue = [3, 3]"] ;
651 -> 652 ;
653 [label="peakOffPeakRatioChangePct <= -4.512\nentropy = 0.811\nsamples = 4\nvalue = [1, 3]"] ;
652 -> 653 ;
654 [label="entropy = 0.0\nsamples = 3\nvalue = [0, 3]"] ;
653 -> 654 ;
655 [label="entropy = 0.0\nsamples = 1\nvalue = [1, 0]"] ;
653 -> 655 ;
656 [label="entropy = 0.0\nsamples = 2\nvalue = [2, 0]"] ;
652 -> 656 ;
657 [label="entropy = 0.0\nsamples = 3\nvalue = [3, 0]"] ;
651 -> 657 ;
658 [label="entropy = 0.0\nsamples = 5\nvalue = [0, 5]"] ;
650 -> 658 ;
659 [label="entropy = 0.0\nsamples = 13\nvalue = [0, 13]"] ;
649 -> 659 ;
660 [label="entropy = 0.0\nsamples = 3\nvalue = [3, 0]"] ;
648 -> 660 ;
661 [label="peakOffPeakRatio <= 1.903\nentropy = 0.954\nsamples = 107\nvalue = [67, 40]"] ;
639 -> 661 ;
662 [label="billAmountChangePct <= -0.07\nentropy = 0.818\nsamples = 59\nvalue = [44, 15]"] ;
661 -> 662 ;
663 [label="billAmountChangePct <= -0.881\nentropy = 0.323\nsamples = 17\nvalue = [16, 1]"] ;
662 -> 663 ;
664 [label="entropy = 0.0\nsamples = 1\nvalue = [0, 1]"] ;
663 -> 664 ;
665 [label="entropy = 0.0\nsamples = 16\nvalue = [16, 0]"] ;
663 -> 665 ;
666 [label="billAmountChangePct <= -0.038\nentropy = 0.918\nsamples = 42\nvalue = [28, 14]"] ;
662 -> 666 ;
667 [label="peakOffPeakRatioChangePct <= -4.647\nentropy = 0.722\nsamples = 5\nvalue = [1, 4]"] ;
666 -> 667 ;
668 [label="entropy = 0.0\nsamples = 1\nvalue = [1, 0]"] ;
667 -> 668 ;
669 [label="entropy = 0.0\nsamples = 4\nvalue = [0, 4]"] ;
667 -> 669 ;
670 [label="callMinutesChangePct <= 1.952\nentropy = 0.842\nsamples = 37\nvalue = [27, 10]"] ;
666 -> 670 ;
671 [label="handsetAge <= 261.5\nentropy = 0.65\nsamples = 30\nvalue = [25, 5]"] ;
670 -> 671 ;
672 [label="peakOffPeakRatio <= 1.458\nentropy = 0.946\nsamples = 11\nvalue = [7, 4]"] ;
671 -> 672 ;
673 [label="handsetAge <= 254.0\nentropy = 0.764\nsamples = 9\nvalue = [7, 2]"] ;
672 -> 673 ;
674 [label="entropy = 0.0\nsamples = 7\nvalue = [7, 0]"] ;
673 -> 674 ;
675 [label="entropy = 0.0\nsamples = 2\nvalue = [0, 2]"] ;
673 -> 675 ;
676 [label="entropy = 0.0\nsamples = 2\nvalue = [0, 2]"] ;
672 -> 676 ;
677 [label="avgInCalls <= 39.335\nentropy = 0.297\nsamples = 19\nvalue = [18, 1]"] ;
671 -> 677 ;
678 [label="entropy = 0.0\nsamples = 17\nvalue = [17, 0]"] ;
677 -> 678 ;
679 [label="avgDroppedCalls <= 8.335\nentropy = 1.0\nsamples = 2\nvalue = [1, 1]"] ;
677 -> 679 ;
680 [label="entropy = 0.0\nsamples = 1\nvalue = [0, 1]"] ;
679 -> 680 ;
681 [label="entropy = 0.0\nsamples = 1\nvalue = [1, 0]"] ;
679 -> 681 ;
682 [label="handsetAge <= 266.0\nentropy = 0.863\nsamples = 7\nvalue = [2, 5]"] ;
670 -> 682 ;
683 [label="peakOffPeakRatio <= 1.389\nentropy = 0.918\nsamples = 3\nvalue = [2, 1]"] ;
682 -> 683 ;
684 [label="entropy = 0.0\nsamples = 2\nvalue = [2, 0]"] ;
683 -> 684 ;
685 [label="entropy = 0.0\nsamples = 1\nvalue = [0, 1]"] ;
683 -> 685 ;
686 [label="entropy = 0.0\nsamples = 4\nvalue = [0, 4]"] ;
682 -> 686 ;
687 [label="avgRoamCalls <= 0.31\nentropy = 0.999\nsamples = 48\nvalue = [23, 25]"] ;
661 -> 687 ;
688 [label="peakOffPeakRatio <= 4.928\nentropy = 0.964\nsamples = 36\nvalue = [22, 14]"] ;
687 -> 688 ;
689 [label="currentHandsetPrice <= 44.99\nentropy = 1.0\nsamples = 28\nvalue = [14, 14]"] ;
688 -> 689 ;
690 [label="avgOutCalls <= 15.335\nentropy = 0.75\nsamples = 14\nvalue = [11, 3]"] ;
689 -> 690 ;
691 [label="avgDroppedCalls <= 2.33\nentropy = 1.0\nsamples = 6\nvalue = [3, 3]"] ;
690 -> 691 ;
692 [label="entropy = 0.0\nsamples = 2\nvalue = [2, 0]"] ;
691 -> 692 ;
693 [label="peakOffPeakRatioChangePct <= 14.223\nentropy = 0.811\nsamples = 4\nvalue = [1, 3]"] ;
691 -> 693 ;
694 [label="entropy = 0.0\nsamples = 3\nvalue = [0, 3]"] ;
693 -> 694 ;
695 [label="entropy = 0.0\nsamples = 1\nvalue = [1, 0]"] ;
693 -> 695 ;
696 [label="entropy = 0.0\nsamples = 8\nvalue = [8, 0]"] ;
690 -> 696 ;
697 [label="callMinutesChangePct <= -0.53\nentropy = 0.75\nsamples = 14\nvalue = [3, 11]"] ;
689 -> 697 ;
698 [label="currentHandsetPrice <= 69.99\nentropy = 0.918\nsamples = 3\nvalue = [2, 1]"] ;
697 -> 698 ;
699 [label="entropy = 0.0\nsamples = 1\nvalue = [0, 1]"] ;
698 -> 699 ;
700 [label="entropy = 0.0\nsamples = 2\nvalue = [2, 0]"] ;
698 -> 700 ;
701 [label="avgOutCalls <= 2.0\nentropy = 0.439\nsamples = 11\nvalue = [1, 10]"] ;
697 -> 701 ;
702 [label="avgBill <= 41.615\nentropy = 1.0\nsamples = 2\nvalue = [1, 1]"] ;
701 -> 702 ;
703 [label="entropy = 0.0\nsamples = 1\nvalue = [0, 1]"] ;
702 -> 703 ;
704 [label="entropy = 0.0\nsamples = 1\nvalue = [1, 0]"] ;
702 -> 704 ;
705 [label="entropy = 0.0\nsamples = 9\nvalue = [0, 9]"] ;
701 -> 705 ;
706 [label="entropy = 0.0\nsamples = 8\nvalue = [8, 0]"] ;
688 -> 706 ;
707 [label="lifeTime <= 36.5\nentropy = 0.414\nsamples = 12\nvalue = [1, 11]"] ;
687 -> 707 ;
708 [label="entropy = 0.0\nsamples = 10\nvalue = [0, 10]"] ;
707 -> 708 ;
709 [label="avgBill <= 51.835\nentropy = 1.0\nsamples = 2\nvalue = [1, 1]"] ;
707 -> 709 ;
710 [label="entropy = 0.0\nsamples = 1\nvalue = [0, 1]"] ;
709 -> 710 ;
711 [label="entropy = 0.0\nsamples = 1\nvalue = [1, 0]"] ;
709 -> 711 ;
712 [label="avgDroppedCalls <= 27.5\nentropy = 0.607\nsamples = 47\nvalue = [40, 7]"] ;
450 -> 712 ;
713 [label="entropy = 0.0\nsamples = 24\nvalue = [24, 0]"] ;
712 -> 713 ;
714 [label="callMinutesChangePct <= -3.077\nentropy = 0.887\nsamples = 23\nvalue = [16, 7]"] ;
712 -> 714 ;
715 [label="entropy = 0.0\nsamples = 11\nvalue = [11, 0]"] ;
714 -> 715 ;
716 [label="avgOutCalls <= 122.67\nentropy = 0.98\nsamples = 12\nvalue = [5, 7]"] ;
714 -> 716 ;
717 [label="entropy = 0.0\nsamples = 4\nvalue = [4, 0]"] ;
716 -> 717 ;
718 [label="lifeTime <= 15.5\nentropy = 0.544\nsamples = 8\nvalue = [1, 7]"] ;
716 -> 718 ;
719 [label="entropy = 0.0\nsamples = 1\nvalue = [1, 0]"] ;
718 -> 719 ;
720 [label="entropy = 0.0\nsamples = 7\nvalue = [0, 7]"] ;
718 -> 720 ;
721 [label="avgOutCalls <= 41.835\nentropy = 0.971\nsamples = 60\nvalue = [24, 36]"] ;
449 -> 721 ;
722 [label="avgOverBundleMins <= 253.625\nentropy = 0.954\nsamples = 24\nvalue = [15, 9]"] ;
721 -> 722 ;
723 [label="entropy = 0.0\nsamples = 5\nvalue = [5, 0]"] ;
722 -> 723 ;
724 [label="billAmountChangePct <= 2.316\nentropy = 0.998\nsamples = 19\nvalue = [10, 9]"] ;
722 -> 724 ;
725 [label="currentHandsetPrice <= 69.99\nentropy = 0.954\nsamples = 16\nvalue = [10, 6]"] ;
724 -> 725 ;
726 [label="entropy = 0.0\nsamples = 6\nvalue = [6, 0]"] ;
725 -> 726 ;
727 [label="currentHandsetPrice <= 114.99\nentropy = 0.971\nsamples = 10\nvalue = [4, 6]"] ;
725 -> 727 ;
728 [label="entropy = 0.0\nsamples = 4\nvalue = [0, 4]"] ;
727 -> 728 ;
729 [label="avgInCalls <= 9.335\nentropy = 0.918\nsamples = 6\nvalue = [4, 2]"] ;
727 -> 729 ;
730 [label="entropy = 0.0\nsamples = 4\nvalue = [4, 0]"] ;
729 -> 730 ;
731 [label="entropy = 0.0\nsamples = 2\nvalue = [0, 2]"] ;
729 -> 731 ;
732 [label="entropy = 0.0\nsamples = 3\nvalue = [0, 3]"] ;
724 -> 732 ;
733 [label="avgBill <= 184.35\nentropy = 0.811\nsamples = 36\nvalue = [9, 27]"] ;
721 -> 733 ;
734 [label="entropy = 0.0\nsamples = 13\nvalue = [0, 13]"] ;
733 -> 734 ;
735 [label="peakOffPeakRatioChangePct <= -10.514\nentropy = 0.966\nsamples = 23\nvalue = [9, 14]"] ;
733 -> 735 ;
736 [label="entropy = 0.0\nsamples = 4\nvalue = [4, 0]"] ;
735 -> 736 ;
737 [label="avgOutCalls <= 118.0\nentropy = 0.831\nsamples = 19\nvalue = [5, 14]"] ;
735 -> 737 ;
738 [label="entropy = 0.0\nsamples = 11\nvalue = [0, 11]"] ;
737 -> 738 ;
739 [label="avgRoamCalls <= 1.36\nentropy = 0.954\nsamples = 8\nvalue = [5, 3]"] ;
737 -> 739 ;
740 [label="entropy = 0.0\nsamples = 5\nvalue = [5, 0]"] ;
739 -> 740 ;
741 [label="entropy = 0.0\nsamples = 3\nvalue = [0, 3]"] ;
739 -> 741 ;
742 [label="callMinutesChangePct <= 0.002\nentropy = 0.983\nsamples = 2995\nvalue = [1271, 1724]"] ;
0 -> 742 [labeldistance=2.5, labelangle=-45, headlabel="False"] ;
743 [label="avgBill <= 11.78\nentropy = 0.962\nsamples = 1712\nvalue = [661, 1051]"] ;
742 -> 743 ;
744 [label="income <= 7.5\nentropy = 0.746\nsamples = 99\nvalue = [21, 78]"] ;
743 -> 744 ;
745 [label="handsetAge <= 819.5\nentropy = 0.821\nsamples = 82\nvalue = [21, 61]"] ;
744 -> 745 ;
746 [label="avgDroppedCalls <= 4.17\nentropy = 0.722\nsamples = 75\nvalue = [15, 60]"] ;
745 -> 746 ;
747 [label="avgOutCalls <= 3.835\nentropy = 0.767\nsamples = 67\nvalue = [15, 52]"] ;
746 -> 747 ;
748 [label="peakOffPeakRatioChangePct <= -10.142\nentropy = 0.643\nsamples = 55\nvalue = [9, 46]"] ;
747 -> 748 ;
749 [label="numHandsets <= 1.5\nentropy = 0.971\nsamples = 5\nvalue = [3, 2]"] ;
748 -> 749 ;
750 [label="avgBill <= 4.015\nentropy = 0.918\nsamples = 3\nvalue = [1, 2]"] ;
749 -> 750 ;
751 [label="entropy = 0.0\nsamples = 1\nvalue = [1, 0]"] ;
750 -> 751 ;
752 [label="entropy = 0.0\nsamples = 2\nvalue = [0, 2]"] ;
750 -> 752 ;
753 [label="entropy = 0.0\nsamples = 2\nvalue = [2, 0]"] ;
749 -> 753 ;
754 [label="income <= 5.5\nentropy = 0.529\nsamples = 50\nvalue = [6, 44]"] ;
748 -> 754 ;
755 [label="peakOffPeakRatioChangePct <= -4.422\nentropy = 0.709\nsamples = 31\nvalue = [6, 25]"] ;
754 -> 755 ;
756 [label="entropy = 0.0\nsamples = 9\nvalue = [0, 9]"] ;
755 -> 756 ;
757 [label="callMinutesChangePct <= -0.01\nentropy = 0.845\nsamples = 22\nvalue = [6, 16]"] ;
755 -> 757 ;
758 [label="income <= 4.5\nentropy = 0.985\nsamples = 7\nvalue = [4, 3]"] ;
757 -> 758 ;
759 [label="avgDroppedCalls <= 0.835\nentropy = 0.722\nsamples = 5\nvalue = [4, 1]"] ;
758 -> 759 ;
760 [label="entropy = 0.0\nsamples = 4\nvalue = [4, 0]"] ;
759 -> 760 ;
761 [label="entropy = 0.0\nsamples = 1\nvalue = [0, 1]"] ;
759 -> 761 ;
762 [label="entropy = 0.0\nsamples = 2\nvalue = [0, 2]"] ;
758 -> 762 ;
763 [label="currentHandsetPrice <= 44.99\nentropy = 0.567\nsamples = 15\nvalue = [2, 13]"] ;
757 -> 763 ;
764 [label="entropy = 0.0\nsamples = 12\nvalue = [0, 12]"] ;
763 -> 764 ;
765 [label="peakOffPeakRatioChangePct <= 6.37\nentropy = 0.918\nsamples = 3\nvalue = [2, 1]"] ;
763 -> 765 ;
766 [label="entropy = 0.0\nsamples = 2\nvalue = [2, 0]"] ;
765 -> 766 ;
767 [label="entropy = 0.0\nsamples = 1\nvalue = [0, 1]"] ;
765 -> 767 ;
768 [label="entropy = 0.0\nsamples = 19\nvalue = [0, 19]"] ;
754 -> 768 ;
769 [label="peakOffPeakRatioChangePct <= -0.363\nentropy = 1.0\nsamples = 12\nvalue = [6, 6]"] ;
747 -> 769 ;
770 [label="age <= 51.0\nentropy = 0.592\nsamples = 7\nvalue = [1, 6]"] ;
769 -> 770 ;
771 [label="entropy = 0.0\nsamples = 6\nvalue = [0, 6]"] ;
770 -> 771 ;
772 [label="entropy = 0.0\nsamples = 1\nvalue = [1, 0]"] ;
770 -> 772 ;
773 [label="entropy = 0.0\nsamples = 5\nvalue = [5, 0]"] ;
769 -> 773 ;
774 [label="entropy = 0.0\nsamples = 8\nvalue = [0, 8]"] ;
746 -> 774 ;
775 [label="smartPhone <= 0.5\nentropy = 0.592\nsamples = 7\nvalue = [6, 1]"] ;
745 -> 775 ;
776 [label="entropy = 0.0\nsamples = 4\nvalue = [4, 0]"] ;
775 -> 776 ;
777 [label="avgReceivedMins <= 0.33\nentropy = 0.918\nsamples = 3\nvalue = [2, 1]"] ;
775 -> 777 ;
778 [label="entropy = 0.0\nsamples = 1\nvalue = [0, 1]"] ;
777 -> 778 ;
779 [label="entropy = 0.0\nsamples = 2\nvalue = [2, 0]"] ;
777 -> 779 ;
780 [label="entropy = 0.0\nsamples = 17\nvalue = [0, 17]"] ;
744 -> 780 ;
781 [label="billAmountChangePct <= -0.028\nentropy = 0.969\nsamples = 1613\nvalue = [640, 973]"] ;
743 -> 781 ;
782 [label="avgBill <= 40.345\nentropy = 0.943\nsamples = 798\nvalue = [288, 510]"] ;
781 -> 782 ;
783 [label="callMinutesChangePct <= -0.027\nentropy = 0.85\nsamples = 250\nvalue = [69, 181]"] ;
782 -> 783 ;
784 [label="avgBill <= 39.785\nentropy = 0.83\nsamples = 244\nvalue = [64, 180]"] ;
783 -> 784 ;
785 [label="callMinutesChangePct <= -0.115\nentropy = 0.848\nsamples = 233\nvalue = [64, 169]"] ;
784 -> 785 ;
786 [label="handsetAge <= 455.5\nentropy = 0.861\nsamples = 225\nvalue = [64, 161]"] ;
785 -> 786 ;
787 [label="avgOverBundleMins <= 0.125\nentropy = 0.727\nsamples = 84\nvalue = [17, 67]"] ;
786 -> 787 ;
788 [label="entropy = 0.0\nsamples = 23\nvalue = [0, 23]"] ;
787 -> 788 ;
789 [label="handsetAge <= 412.0\nentropy = 0.854\nsamples = 61\nvalue = [17, 44]"] ;
787 -> 789 ;
790 [label="avgReceivedMins <= 111.655\nentropy = 0.912\nsamples = 52\nvalue = [17, 35]"] ;
789 -> 790 ;
791 [label="avgReceivedMins <= 80.095\nentropy = 0.962\nsamples = 44\nvalue = [17, 27]"] ;
790 -> 791 ;
792 [label="avgOutCalls <= 22.5\nentropy = 0.868\nsamples = 38\nvalue = [11, 27]"] ;
791 -> 792 ;
793 [label="handsetAge <= 354.5\nentropy = 0.958\nsamples = 29\nvalue = [11, 18]"] ;
792 -> 793 ;
794 [label="avgOutCalls <= 5.83\nentropy = 0.792\nsamples = 21\nvalue = [5, 16]"] ;
793 -> 794 ;
795 [label="entropy = 0.0\nsamples = 11\nvalue = [0, 11]"] ;
794 -> 795 ;
796 [label="billAmountChangePct <= -0.173\nentropy = 1.0\nsamples = 10\nvalue = [5, 5]"] ;
794 -> 796 ;
797 [label="entropy = 0.0\nsamples = 4\nvalue = [0, 4]"] ;
796 -> 797 ;
798 [label="peakOffPeakRatioChangePct <= -13.034\nentropy = 0.65\nsamples = 6\nvalue = [5, 1]"] ;
796 -> 798 ;
799 [label="entropy = 0.0\nsamples = 1\nvalue = [0, 1]"] ;
798 -> 799 ;
800 [label="entropy = 0.0\nsamples = 5\nvalue = [5, 0]"] ;
798 -> 800 ;
801 [label="billAmountChangePct <= -0.092\nentropy = 0.811\nsamples = 8\nvalue = [6, 2]"] ;
793 -> 801 ;
802 [label="entropy = 0.0\nsamples = 5\nvalue = [5, 0]"] ;
801 -> 802 ;
803 [label="income <= 3.0\nentropy = 0.918\nsamples = 3\nvalue = [1, 2]"] ;
801 -> 803 ;
804 [label="entropy = 0.0\nsamples = 2\nvalue = [0, 2]"] ;
803 -> 804 ;
805 [label="entropy = 0.0\nsamples = 1\nvalue = [1, 0]"] ;
803 -> 805 ;
806 [label="entropy = 0.0\nsamples = 9\nvalue = [0, 9]"] ;
792 -> 806 ;
807 [label="entropy = 0.0\nsamples = 6\nvalue = [6, 0]"] ;
791 -> 807 ;
808 [label="entropy = 0.0\nsamples = 8\nvalue = [0, 8]"] ;
790 -> 808 ;
809 [label="entropy = 0.0\nsamples = 9\nvalue = [0, 9]"] ;
789 -> 809 ;
810 [label="callMinutesChangePct <= -0.89\nentropy = 0.918\nsamples = 141\nvalue = [47, 94]"] ;
786 -> 810 ;
811 [label="avgDroppedCalls <= 13.335\nentropy = 0.772\nsamples = 75\nvalue = [17, 58]"] ;
810 -> 811 ;
812 [label="peakOffPeakRatioChangePct <= 4.375\nentropy = 0.656\nsamples = 65\nvalue = [11, 54]"] ;
811 -> 812 ;
813 [label="peakOffPeakRatioChangePct <= 3.26\nentropy = 0.82\nsamples = 43\nvalue = [11, 32]"] ;
812 -> 813 ;
814 [label="avgBill <= 38.11\nentropy = 0.722\nsamples = 40\nvalue = [8, 32]"] ;
813 -> 814 ;
815 [label="avgOutCalls <= 8.5\nentropy = 0.581\nsamples = 36\nvalue = [5, 31]"] ;
814 -> 815 ;
816 [label="billAmountChangePct <= -0.086\nentropy = 0.831\nsamples = 19\nvalue = [5, 14]"] ;
815 -> 816 ;
817 [label="avgBill <= 18.315\nentropy = 0.391\nsamples = 13\nvalue = [1, 12]"] ;
816 -> 817 ;
818 [label="entropy = 0.0\nsamples = 1\nvalue = [1, 0]"] ;
817 -> 818 ;
819 [label="entropy = 0.0\nsamples = 12\nvalue = [0, 12]"] ;
817 -> 819 ;
820 [label="billAmountChangePct <= -0.035\nentropy = 0.918\nsamples = 6\nvalue = [4, 2]"] ;
816 -> 820 ;
821 [label="entropy = 0.0\nsamples = 4\nvalue = [4, 0]"] ;
820 -> 821 ;
822 [label="entropy = 0.0\nsamples = 2\nvalue = [0, 2]"] ;
820 -> 822 ;
823 [label="entropy = 0.0\nsamples = 17\nvalue = [0, 17]"] ;
815 -> 823 ;
824 [label="avgReceivedMins <= 33.855\nentropy = 0.811\nsamples = 4\nvalue = [3, 1]"] ;
814 -> 824 ;
825 [label="entropy = 0.0\nsamples = 1\nvalue = [0, 1]"] ;
824 -> 825 ;
826 [label="entropy = 0.0\nsamples = 3\nvalue = [3, 0]"] ;
824 -> 826 ;
827 [label="entropy = 0.0\nsamples = 3\nvalue = [3, 0]"] ;
813 -> 827 ;
828 [label="entropy = 0.0\nsamples = 22\nvalue = [0, 22]"] ;
812 -> 828 ;
829 [label="avgOutCalls <= 19.5\nentropy = 0.971\nsamples = 10\nvalue = [6, 4]"] ;
811 -> 829 ;
830 [label="numHandsets <= 1.5\nentropy = 0.722\nsamples = 5\nvalue = [1, 4]"] ;
829 -> 830 ;
831 [label="entropy = 0.0\nsamples = 4\nvalue = [0, 4]"] ;
830 -> 831 ;
832 [label="entropy = 0.0\nsamples = 1\nvalue = [1, 0]"] ;
830 -> 832 ;
833 [label="entropy = 0.0\nsamples = 5\nvalue = [5, 0]"] ;
829 -> 833 ;
834 [label="peakOffPeakRatioChangePct <= 10.81\nentropy = 0.994\nsamples = 66\nvalue = [30, 36]"] ;
810 -> 834 ;
835 [label="handsetAge <= 719.5\nentropy = 0.941\nsamples = 53\nvalue = [19, 34]"] ;
834 -> 835 ;
836 [label="avgOverBundleMins <= 4.0\nentropy = 0.999\nsamples = 29\nvalue = [15, 14]"] ;
835 -> 836 ;
837 [label="income <= 6.5\nentropy = 0.779\nsamples = 13\nvalue = [10, 3]"] ;
836 -> 837 ;
838 [label="entropy = 0.0\nsamples = 7\nvalue = [7, 0]"] ;
837 -> 838 ;
839 [label="handsetAge <= 503.0\nentropy = 1.0\nsamples = 6\nvalue = [3, 3]"] ;
837 -> 839 ;
840 [label="entropy = 0.0\nsamples = 3\nvalue = [3, 0]"] ;
839 -> 840 ;
841 [label="entropy = 0.0\nsamples = 3\nvalue = [0, 3]"] ;
839 -> 841 ;
842 [label="avgBill <= 36.3\nentropy = 0.896\nsamples = 16\nvalue = [5, 11]"] ;
836 -> 842 ;
843 [label="handsetAge <= 683.5\nentropy = 0.619\nsamples = 13\nvalue = [2, 11]"] ;
842 -> 843 ;
844 [label="entropy = 0.0\nsamples = 9\nvalue = [0, 9]"] ;
843 -> 844 ;
845 [label="peakOffPeakRatio <= 1.417\nentropy = 1.0\nsamples = 4\nvalue = [2, 2]"] ;
843 -> 845 ;
846 [label="entropy = 0.0\nsamples = 2\nvalue = [0, 2]"] ;
845 -> 846 ;
847 [label="entropy = 0.0\nsamples = 2\nvalue = [2, 0]"] ;
845 -> 847 ;
848 [label="entropy = 0.0\nsamples = 3\nvalue = [3, 0]"] ;
842 -> 848 ;
849 [label="peakOffPeakRatioChangePct <= 1.939\nentropy = 0.65\nsamples = 24\nvalue = [4, 20]"] ;
835 -> 849 ;
850 [label="entropy = 0.0\nsamples = 13\nvalue = [0, 13]"] ;
849 -> 850 ;
851 [label="peakOffPeakRatioChangePct <= 2.438\nentropy = 0.946\nsamples = 11\nvalue = [4, 7]"] ;
849 -> 851 ;
852 [label="entropy = 0.0\nsamples = 2\nvalue = [2, 0]"] ;
851 -> 852 ;
853 [label="lifeTime <= 31.0\nentropy = 0.764\nsamples = 9\nvalue = [2, 7]"] ;
851 -> 853 ;
854 [label="entropy = 0.0\nsamples = 6\nvalue = [0, 6]"] ;
853 -> 854 ;
855 [label="avgOverBundleMins <= 7.0\nentropy = 0.918\nsamples = 3\nvalue = [2, 1]"] ;
853 -> 855 ;
856 [label="entropy = 0.0\nsamples = 1\nvalue = [0, 1]"] ;
855 -> 856 ;
857 [label="entropy = 0.0\nsamples = 2\nvalue = [2, 0]"] ;
855 -> 857 ;
858 [label="age <= 39.0\nentropy = 0.619\nsamples = 13\nvalue = [11, 2]"] ;
834 -> 858 ;
859 [label="entropy = 0.0\nsamples = 9\nvalue = [9, 0]"] ;
858 -> 859 ;
860 [label="avgReceivedMins <= 1.62\nentropy = 1.0\nsamples = 4\nvalue = [2, 2]"] ;
858 -> 860 ;
861 [label="entropy = 0.0\nsamples = 2\nvalue = [2, 0]"] ;
860 -> 861 ;
862 [label="entropy = 0.0\nsamples = 2\nvalue = [0, 2]"] ;
860 -> 862 ;
863 [label="entropy = 0.0\nsamples = 8\nvalue = [0, 8]"] ;
785 -> 863 ;
864 [label="entropy = 0.0\nsamples = 11\nvalue = [0, 11]"] ;
784 -> 864 ;
865 [label="avgOverBundleMins <= 4.875\nentropy = 0.65\nsamples = 6\nvalue = [5, 1]"] ;
783 -> 865 ;
866 [label="entropy = 0.0\nsamples = 5\nvalue = [5, 0]"] ;
865 -> 866 ;
867 [label="entropy = 0.0\nsamples = 1\nvalue = [0, 1]"] ;
865 -> 867 ;
868 [label="newFrequentNumbers <= 2.5\nentropy = 0.971\nsamples = 548\nvalue = [219, 329]"] ;
782 -> 868 ;
869 [label="callMinutesChangePct <= -3.462\nentropy = 0.975\nsamples = 538\nvalue = [219, 319]"] ;
868 -> 869 ;
870 [label="callMinutesChangePct <= -3.66\nentropy = 0.924\nsamples = 230\nvalue = [78, 152]"] ;
869 -> 870 ;
871 [label="avgBill <= 86.055\nentropy = 0.939\nsamples = 219\nvalue = [78, 141]"] ;
870 -> 871 ;
872 [label="avgInCalls <= 27.5\nentropy = 0.87\nsamples = 127\nvalue = [37, 90]"] ;
871 -> 872 ;
873 [label="callMinutesChangePct <= -5.55\nentropy = 0.915\nsamples = 112\nvalue = [37, 75]"] ;
872 -> 873 ;
874 [label="avgBill <= 49.585\nentropy = 1.0\nsamples = 57\nvalue = [28, 29]"] ;
873 -> 874 ;
875 [label="entropy = 0.0\nsamples = 6\nvalue = [6, 0]"] ;
874 -> 875 ;
876 [label="numHandsets <= 2.5\nentropy = 0.986\nsamples = 51\nvalue = [22, 29]"] ;
874 -> 876 ;
877 [label="peakOffPeakRatioChangePct <= 14.775\nentropy = 1.0\nsamples = 45\nvalue = [22, 23]"] ;
876 -> 877 ;
878 [label="billAmountChangePct <= -2.265\nentropy = 0.989\nsamples = 41\nvalue = [18, 23]"] ;
877 -> 878 ;
879 [label="entropy = 0.0\nsamples = 3\nvalue = [3, 0]"] ;
878 -> 879 ;
880 [label="peakOffPeakRatioChangePct <= 12.916\nentropy = 0.968\nsamples = 38\nvalue = [15, 23]"] ;
878 -> 880 ;
881 [label="peakOffPeakRatioChangePct <= 8.882\nentropy = 0.99\nsamples = 34\nvalue = [15, 19]"] ;
880 -> 881 ;
882 [label="avgOverBundleMins <= 1.0\nentropy = 0.963\nsamples = 31\nvalue = [12, 19]"] ;
881 -> 882 ;
883 [label="entropy = 0.0\nsamples = 7\nvalue = [0, 7]"] ;
882 -> 883 ;
884 [label="avgOverBundleMins <= 29.375\nentropy = 1.0\nsamples = 24\nvalue = [12, 12]"] ;
882 -> 884 ;
885 [label="peakOffPeakRatioChangePct <= -13.045\nentropy = 0.592\nsamples = 7\nvalue = [6, 1]"] ;
884 -> 885 ;
886 [label="entropy = 0.0\nsamples = 1\nvalue = [0, 1]"] ;
885 -> 886 ;
887 [label="entropy = 0.0\nsamples = 6\nvalue = [6, 0]"] ;
885 -> 887 ;
888 [label="peakOffPeakRatioChangePct <= -3.613\nentropy = 0.937\nsamples = 17\nvalue = [6, 11]"] ;
884 -> 888 ;
889 [label="entropy = 0.0\nsamples = 6\nvalue = [0, 6]"] ;
888 -> 889 ;
890 [label="handsetAge <= 398.5\nentropy = 0.994\nsamples = 11\nvalue = [6, 5]"] ;
888 -> 890 ;
891 [label="entropy = 0.0\nsamples = 3\nvalue = [0, 3]"] ;
890 -> 891 ;
892 [label="avgInCalls <= 3.165\nentropy = 0.811\nsamples = 8\nvalue = [6, 2]"] ;
890 -> 892 ;
893 [label="entropy = 0.0\nsamples = 5\nvalue = [5, 0]"] ;
892 -> 893 ;
894 [label="avgOverBundleMins <= 82.0\nentropy = 0.918\nsamples = 3\nvalue = [1, 2]"] ;
892 -> 894 ;
895 [label="entropy = 0.0\nsamples = 1\nvalue = [1, 0]"] ;
894 -> 895 ;
896 [label="entropy = 0.0\nsamples = 2\nvalue = [0, 2]"] ;
894 -> 896 ;
897 [label="entropy = 0.0\nsamples = 3\nvalue = [3, 0]"] ;
881 -> 897 ;
898 [label="entropy = 0.0\nsamples = 4\nvalue = [0, 4]"] ;
880 -> 898 ;
899 [label="entropy = 0.0\nsamples = 4\nvalue = [4, 0]"] ;
877 -> 899 ;
900 [label="entropy = 0.0\nsamples = 6\nvalue = [0, 6]"] ;
876 -> 900 ;
901 [label="peakOffPeakRatio <= 2.402\nentropy = 0.643\nsamples = 55\nvalue = [9, 46]"] ;
873 -> 901 ;
902 [label="avgDroppedCalls <= 11.665\nentropy = 0.297\nsamples = 38\nvalue = [2, 36]"] ;
901 -> 902 ;
903 [label="entropy = 0.0\nsamples = 30\nvalue = [0, 30]"] ;
902 -> 903 ;
904 [label="avgOutCalls <= 11.665\nentropy = 0.811\nsamples = 8\nvalue = [2, 6]"] ;
902 -> 904 ;
905 [label="entropy = 0.0\nsamples = 2\nvalue = [2, 0]"] ;
904 -> 905 ;
906 [label="entropy = 0.0\nsamples = 6\nvalue = [0, 6]"] ;
904 -> 906 ;
907 [label="age <= 47.0\nentropy = 0.977\nsamples = 17\nvalue = [7, 10]"] ;
901 -> 907 ;
908 [label="avgDroppedCalls <= 16.0\nentropy = 0.863\nsamples = 14\nvalue = [4, 10]"] ;
907 -> 908 ;
909 [label="income <= 6.5\nentropy = 0.65\nsamples = 12\nvalue = [2, 10]"] ;
908 -> 909 ;
910 [label="entropy = 0.0\nsamples = 8\nvalue = [0, 8]"] ;
909 -> 910 ;
911 [label="billAmountChangePct <= -0.161\nentropy = 1.0\nsamples = 4\nvalue = [2, 2]"] ;
909 -> 911 ;
912 [label="entropy = 0.0\nsamples = 2\nvalue = [0, 2]"] ;
911 -> 912 ;
913 [label="entropy = 0.0\nsamples = 2\nvalue = [2, 0]"] ;
911 -> 913 ;
914 [label="entropy = 0.0\nsamples = 2\nvalue = [2, 0]"] ;
908 -> 914 ;
915 [label="entropy = 0.0\nsamples = 3\nvalue = [3, 0]"] ;
907 -> 915 ;
916 [label="entropy = 0.0\nsamples = 15\nvalue = [0, 15]"] ;
872 -> 916 ;
917 [label="billAmountChangePct <= -0.971\nentropy = 0.991\nsamples = 92\nvalue = [41, 51]"] ;
871 -> 917 ;
918 [label="avgReceivedMins <= 121.755\nentropy = 0.901\nsamples = 60\nvalue = [19, 41]"] ;
917 -> 918 ;
919 [label="entropy = 0.0\nsamples = 12\nvalue = [0, 12]"] ;
918 -> 919 ;
920 [label="avgRoamCalls <= 5.22\nentropy = 0.968\nsamples = 48\nvalue = [19, 29]"] ;
918 -> 920 ;
921 [label="callMinutesChangePct <= -4.727\nentropy = 0.901\nsamples = 41\nvalue = [13, 28]"] ;
920 -> 921 ;
922 [label="billAmountChangePct <= -1.735\nentropy = 0.776\nsamples = 35\nvalue = [8, 27]"] ;
921 -> 922 ;
923 [label="peakOffPeakRatioChangePct <= 4.691\nentropy = 0.959\nsamples = 21\nvalue = [8, 13]"] ;
922 -> 923 ;
924 [label="handsetAge <= 347.0\nentropy = 0.592\nsamples = 14\nvalue = [2, 12]"] ;
923 -> 924 ;
925 [label="age <= 25.0\nentropy = 1.0\nsamples = 4\nvalue = [2, 2]"] ;
924 -> 925 ;
926 [label="entropy = 0.0\nsamples = 2\nvalue = [2, 0]"] ;
925 -> 926 ;
927 [label="entropy = 0.0\nsamples = 2\nvalue = [0, 2]"] ;
925 -> 927 ;
928 [label="entropy = 0.0\nsamples = 10\nvalue = [0, 10]"] ;
924 -> 928 ;
929 [label="avgInCalls <= 3.165\nentropy = 0.592\nsamples = 7\nvalue = [6, 1]"] ;
923 -> 929 ;
930 [label="entropy = 0.0\nsamples = 1\nvalue = [0, 1]"] ;
929 -> 930 ;
931 [label="entropy = 0.0\nsamples = 6\nvalue = [6, 0]"] ;
929 -> 931 ;
932 [label="entropy = 0.0\nsamples = 14\nvalue = [0, 14]"] ;
922 -> 932 ;
933 [label="peakOffPeakRatioChangePct <= 7.123\nentropy = 0.65\nsamples = 6\nvalue = [5, 1]"] ;
921 -> 933 ;
934 [label="entropy = 0.0\nsamples = 5\nvalue = [5, 0]"] ;
933 -> 934 ;
935 [label="entropy = 0.0\nsamples = 1\nvalue = [0, 1]"] ;
933 -> 935 ;
936 [label="billAmountChangePct <= -1.059\nentropy = 0.592\nsamples = 7\nvalue = [6, 1]"] ;
920 -> 936 ;
937 [label="entropy = 0.0\nsamples = 6\nvalue = [6, 0]"] ;
936 -> 937 ;
938 [label="entropy = 0.0\nsamples = 1\nvalue = [0, 1]"] ;
936 -> 938 ;
939 [label="peakOffPeakRatio <= 4.115\nentropy = 0.896\nsamples = 32\nvalue = [22, 10]"] ;
917 -> 939 ;
940 [label="avgDroppedCalls <= 14.165\nentropy = 0.75\nsamples = 28\nvalue = [22, 6]"] ;
939 -> 940 ;
941 [label="avgOutCalls <= 32.17\nentropy = 0.985\nsamples = 14\nvalue = [8, 6]"] ;
940 -> 941 ;
942 [label="peakOffPeakRatio <= 2.54\nentropy = 0.544\nsamples = 8\nvalue = [7, 1]"] ;
941 -> 942 ;
943 [label="entropy = 0.0\nsamples = 7\nvalue = [7, 0]"] ;
942 -> 943 ;
944 [label="entropy = 0.0\nsamples = 1\nvalue = [0, 1]"] ;
942 -> 944 ;
945 [label="handsetAge <= 675.5\nentropy = 0.65\nsamples = 6\nvalue = [1, 5]"] ;
941 -> 945 ;
946 [label="entropy = 0.0\nsamples = 5\nvalue = [0, 5]"] ;
945 -> 946 ;
947 [label="entropy = 0.0\nsamples = 1\nvalue = [1, 0]"] ;
945 -> 947 ;
948 [label="entropy = 0.0\nsamples = 14\nvalue = [14, 0]"] ;
940 -> 948 ;
949 [label="entropy = 0.0\nsamples = 4\nvalue = [0, 4]"] ;
939 -> 949 ;
950 [label="entropy = 0.0\nsamples = 11\nvalue = [0, 11]"] ;
870 -> 950 ;
951 [label="avgInCalls <= 0.165\nentropy = 0.995\nsamples = 308\nvalue = [141, 167]"] ;
869 -> 951 ;
952 [label="avgRoamCalls <= 9.475\nentropy = 0.896\nsamples = 80\nvalue = [25, 55]"] ;
951 -> 952 ;
953 [label="peakOffPeakRatioChangePct <= -9.653\nentropy = 0.85\nsamples = 76\nvalue = [21, 55]"] ;
952 -> 953 ;
954 [label="entropy = 0.0\nsamples = 13\nvalue = [0, 13]"] ;
953 -> 954 ;
955 [label="avgOverBundleMins <= 30.125\nentropy = 0.918\nsamples = 63\nvalue = [21, 42]"] ;
953 -> 955 ;
956 [label="avgRoamCalls <= 0.355\nentropy = 0.742\nsamples = 38\nvalue = [8, 30]"] ;
955 -> 956 ;
957 [label="avgOverBundleMins <= 20.0\nentropy = 0.258\nsamples = 23\nvalue = [1, 22]"] ;
956 -> 957 ;
958 [label="entropy = 0.0\nsamples = 18\nvalue = [0, 18]"] ;
957 -> 958 ;
959 [label="billAmountChangePct <= -0.155\nentropy = 0.722\nsamples = 5\nvalue = [1, 4]"] ;
957 -> 959 ;
960 [label="entropy = 0.0\nsamples = 4\nvalue = [0, 4]"] ;
959 -> 960 ;
961 [label="entropy = 0.0\nsamples = 1\nvalue = [1, 0]"] ;
959 -> 961 ;
962 [label="peakOffPeakRatioChangePct <= 6.947\nentropy = 0.997\nsamples = 15\nvalue = [7, 8]"] ;
956 -> 962 ;
963 [label="peakOffPeakRatio <= 2.827\nentropy = 0.98\nsamples = 12\nvalue = [7, 5]"] ;
962 -> 963 ;
964 [label="peakOffPeakRatio <= 1.347\nentropy = 0.881\nsamples = 10\nvalue = [7, 3]"] ;
963 -> 964 ;
965 [label="avgBill <= 57.62\nentropy = 0.971\nsamples = 5\nvalue = [2, 3]"] ;
964 -> 965 ;
966 [label="entropy = 0.0\nsamples = 3\nvalue = [0, 3]"] ;
965 -> 966 ;
967 [label="entropy = 0.0\nsamples = 2\nvalue = [2, 0]"] ;
965 -> 967 ;
968 [label="entropy = 0.0\nsamples = 5\nvalue = [5, 0]"] ;
964 -> 968 ;
969 [label="entropy = 0.0\nsamples = 2\nvalue = [0, 2]"] ;
963 -> 969 ;
970 [label="entropy = 0.0\nsamples = 3\nvalue = [0, 3]"] ;
962 -> 970 ;
971 [label="smartPhone <= 0.5\nentropy = 0.999\nsamples = 25\nvalue = [13, 12]"] ;
955 -> 971 ;
972 [label="entropy = 0.0\nsamples = 3\nvalue = [0, 3]"] ;
971 -> 972 ;
973 [label="billAmountChangePct <= -1.067\nentropy = 0.976\nsamples = 22\nvalue = [13, 9]"] ;
971 -> 973 ;
974 [label="entropy = 0.0\nsamples = 2\nvalue = [0, 2]"] ;
973 -> 974 ;
975 [label="billAmountChangePct <= -0.411\nentropy = 0.934\nsamples = 20\nvalue = [13, 7]"] ;
973 -> 975 ;
976 [label="entropy = 0.0\nsamples = 5\nvalue = [5, 0]"] ;
975 -> 976 ;
977 [label="billAmountChangePct <= -0.291\nentropy = 0.997\nsamples = 15\nvalue = [8, 7]"] ;
975 -> 977 ;
978 [label="entropy = 0.0\nsamples = 5\nvalue = [0, 5]"] ;
977 -> 978 ;
979 [label="age <= 36.0\nentropy = 0.722\nsamples = 10\nvalue = [8, 2]"] ;
977 -> 979 ;
980 [label="peakOffPeakRatioChangePct <= 4.275\nentropy = 1.0\nsamples = 4\nvalue = [2, 2]"] ;
979 -> 980 ;
981 [label="entropy = 0.0\nsamples = 2\nvalue = [0, 2]"] ;
980 -> 981 ;
982 [label="entropy = 0.0\nsamples = 2\nvalue = [2, 0]"] ;
980 -> 982 ;
983 [label="entropy = 0.0\nsamples = 6\nvalue = [6, 0]"] ;
979 -> 983 ;
984 [label="entropy = 0.0\nsamples = 4\nvalue = [4, 0]"] ;
952 -> 984 ;
985 [label="peakOffPeakRatio <= 0.84\nentropy = 1.0\nsamples = 228\nvalue = [116, 112]"] ;
951 -> 985 ;
986 [label="avgReceivedMins <= 220.4\nentropy = 0.881\nsamples = 40\nvalue = [12, 28]"] ;
985 -> 986 ;
987 [label="handsetAge <= 319.5\nentropy = 0.978\nsamples = 29\nvalue = [12, 17]"] ;
986 -> 987 ;
988 [label="entropy = 0.0\nsamples = 4\nvalue = [4, 0]"] ;
987 -> 988 ;
989 [label="avgInCalls <= 18.5\nentropy = 0.904\nsamples = 25\nvalue = [8, 17]"] ;
987 -> 989 ;
990 [label="peakOffPeakRatioChangePct <= -17.168\nentropy = 0.773\nsamples = 22\nvalue = [5, 17]"] ;
989 -> 990 ;
991 [label="entropy = 0.0\nsamples = 3\nvalue = [3, 0]"] ;
990 -> 991 ;
992 [label="billAmountChangePct <= -0.429\nentropy = 0.485\nsamples = 19\nvalue = [2, 17]"] ;
990 -> 992 ;
993 [label="entropy = 0.0\nsamples = 2\nvalue = [2, 0]"] ;
992 -> 993 ;
994 [label="entropy = 0.0\nsamples = 17\nvalue = [0, 17]"] ;
992 -> 994 ;
995 [label="entropy = 0.0\nsamples = 3\nvalue = [3, 0]"] ;
989 -> 995 ;
996 [label="entropy = 0.0\nsamples = 11\nvalue = [0, 11]"] ;
986 -> 996 ;
997 [label="avgInCalls <= 0.5\nentropy = 0.992\nsamples = 188\nvalue = [104, 84]"] ;
985 -> 997 ;
998 [label="newFrequentNumbers <= 0.5\nentropy = 0.544\nsamples = 16\nvalue = [14, 2]"] ;
997 -> 998 ;
999 [label="entropy = 0.0\nsamples = 13\nvalue = [13, 0]"] ;
998 -> 999 ;
1000 [label="avgBill <= 48.77\nentropy = 0.918\nsamples = 3\nvalue = [1, 2]"] ;
998 -> 1000 ;
1001 [label="entropy = 0.0\nsamples = 1\nvalue = [1, 0]"] ;
1000 -> 1001 ;
1002 [label="entropy = 0.0\nsamples = 2\nvalue = [0, 2]"] ;
1000 -> 1002 ;
1003 [label="avgReceivedMins <= 329.865\nentropy = 0.998\nsamples = 172\nvalue = [90, 82]"] ;
997 -> 1003 ;
1004 [label="avgOverBundleMins <= 185.5\nentropy = 1.0\nsamples = 160\nvalue = [79, 81]"] ;
1003 -> 1004 ;
1005 [label="avgDroppedCalls <= 1.165\nentropy = 1.0\nsamples = 155\nvalue = [79, 76]"] ;
1004 -> 1005 ;
1006 [label="entropy = 0.0\nsamples = 3\nvalue = [0, 3]"] ;
1005 -> 1006 ;
1007 [label="avgReceivedMins <= 300.405\nentropy = 0.999\nsamples = 152\nvalue = [79, 73]"] ;
1005 -> 1007 ;
1008 [label="callMinutesChangePct <= -0.978\nentropy = 0.997\nsamples = 149\nvalue = [79, 70]"] ;
1007 -> 1008 ;
1009 [label="avgOutCalls <= 3.835\nentropy = 0.997\nsamples = 100\nvalue = [47, 53]"] ;
1008 -> 1009 ;
1010 [label="entropy = 0.0\nsamples = 6\nvalue = [0, 6]"] ;
1009 -> 1010 ;
1011 [label="callMinutesChangePct <= -2.587\nentropy = 1.0\nsamples = 94\nvalue = [47, 47]"] ;
1009 -> 1011 ;
1012 [label="avgOverBundleMins <= 3.5\nentropy = 0.871\nsamples = 24\nvalue = [17, 7]"] ;
1011 -> 1012 ;
1013 [label="peakOffPeakRatioChangePct <= -8.5\nentropy = 0.65\nsamples = 6\nvalue = [1, 5]"] ;
1012 -> 1013 ;
1014 [label="entropy = 0.0\nsamples = 1\nvalue = [1, 0]"] ;
1013 -> 1014 ;
1015 [label="entropy = 0.0\nsamples = 5\nvalue = [0, 5]"] ;
1013 -> 1015 ;
1016 [label="avgBill <= 53.455\nentropy = 0.503\nsamples = 18\nvalue = [16, 2]"] ;
1012 -> 1016 ;
1017 [label="avgRoamCalls <= 0.18\nentropy = 1.0\nsamples = 4\nvalue = [2, 2]"] ;
1016 -> 1017 ;
1018 [label="entropy = 0.0\nsamples = 2\nvalue = [2, 0]"] ;
1017 -> 1018 ;
1019 [label="entropy = 0.0\nsamples = 2\nvalue = [0, 2]"] ;
1017 -> 1019 ;
1020 [label="entropy = 0.0\nsamples = 14\nvalue = [14, 0]"] ;
1016 -> 1020 ;
1021 [label="lifeTime <= 12.5\nentropy = 0.985\nsamples = 70\nvalue = [30, 40]"] ;
1011 -> 1021 ;
1022 [label="entropy = 0.0\nsamples = 7\nvalue = [0, 7]"] ;
1021 -> 1022 ;
1023 [label="avgReceivedMins <= 36.685\nentropy = 0.998\nsamples = 63\nvalue = [30, 33]"] ;
1021 -> 1023 ;
1024 [label="entropy = 0.0\nsamples = 9\nvalue = [9, 0]"] ;
1023 -> 1024 ;
1025 [label="avgOverBundleMins <= 94.625\nentropy = 0.964\nsamples = 54\nvalue = [21, 33]"] ;
1023 -> 1025 ;
1026 [label="avgBill <= 62.56\nentropy = 0.903\nsamples = 47\nvalue = [15, 32]"] ;
1025 -> 1026 ;
1027 [label="avgOverBundleMins <= 0.125\nentropy = 0.996\nsamples = 26\nvalue = [12, 14]"] ;
1026 -> 1027 ;
1028 [label="entropy = 0.0\nsamples = 4\nvalue = [0, 4]"] ;
1027 -> 1028 ;
1029 [label="currentHandsetPrice <= 19.99\nentropy = 0.994\nsamples = 22\nvalue = [12, 10]"] ;
1027 -> 1029 ;
1030 [label="avgOverBundleMins <= 62.125\nentropy = 0.977\nsamples = 17\nvalue = [7, 10]"] ;
1029 -> 1030 ;
1031 [label="peakOffPeakRatioChangePct <= -4.84\nentropy = 0.863\nsamples = 14\nvalue = [4, 10]"] ;
1030 -> 1031 ;
1032 [label="billAmountChangePct <= -0.273\nentropy = 0.918\nsamples = 6\nvalue = [4, 2]"] ;
1031 -> 1032 ;
1033 [label="entropy = 0.0\nsamples = 2\nvalue = [0, 2]"] ;
1032 -> 1033 ;
1034 [label="entropy = 0.0\nsamples = 4\nvalue = [4, 0]"] ;
1032 -> 1034 ;
1035 [label="entropy = 0.0\nsamples = 8\nvalue = [0, 8]"] ;
1031 -> 1035 ;
1036 [label="entropy = 0.0\nsamples = 3\nvalue = [3, 0]"] ;
1030 -> 1036 ;
1037 [label="entropy = 0.0\nsamples = 5\nvalue = [5, 0]"] ;
1029 -> 1037 ;
1038 [label="peakOffPeakRatio <= 2.415\nentropy = 0.592\nsamples = 21\nvalue = [3, 18]"] ;
1026 -> 1038 ;
1039 [label="entropy = 0.0\nsamples = 13\nvalue = [0, 13]"] ;
1038 -> 1039 ;
1040 [label="age <= 33.0\nentropy = 0.954\nsamples = 8\nvalue = [3, 5]"] ;
1038 -> 1040 ;
1041 [label="entropy = 0.0\nsamples = 3\nvalue = [0, 3]"] ;
1040 -> 1041 ;
1042 [label="avgReceivedMins <= 100.705\nentropy = 0.971\nsamples = 5\nvalue = [3, 2]"] ;
1040 -> 1042 ;
1043 [label="entropy = 0.0\nsamples = 2\nvalue = [0, 2]"] ;
1042 -> 1043 ;
1044 [label="entropy = 0.0\nsamples = 3\nvalue = [3, 0]"] ;
1042 -> 1044 ;
1045 [label="peakOffPeakRatio <= 8.009\nentropy = 0.592\nsamples = 7\nvalue = [6, 1]"] ;
1025 -> 1045 ;
1046 [label="entropy = 0.0\nsamples = 6\nvalue = [6, 0]"] ;
1045 -> 1046 ;
1047 [label="entropy = 0.0\nsamples = 1\nvalue = [0, 1]"] ;
1045 -> 1047 ;
1048 [label="billAmountChangePct <= -0.405\nentropy = 0.931\nsamples = 49\nvalue = [32, 17]"] ;
1008 -> 1048 ;
1049 [label="entropy = 0.0\nsamples = 8\nvalue = [8, 0]"] ;
1048 -> 1049 ;
1050 [label="avgOverBundleMins <= 31.75\nentropy = 0.979\nsamples = 41\nvalue = [24, 17]"] ;
1048 -> 1050 ;
1051 [label="handsetAge <= 391.5\nentropy = 0.667\nsamples = 23\nvalue = [19, 4]"] ;
1050 -> 1051 ;
1052 [label="handsetAge <= 352.5\nentropy = 0.991\nsamples = 9\nvalue = [5, 4]"] ;
1051 -> 1052 ;
1053 [label="entropy = 0.0\nsamples = 4\nvalue = [4, 0]"] ;
1052 -> 1053 ;
1054 [label="avgDroppedCalls <= 3.665\nentropy = 0.722\nsamples = 5\nvalue = [1, 4]"] ;
1052 -> 1054 ;
1055 [label="entropy = 0.0\nsamples = 1\nvalue = [1, 0]"] ;
1054 -> 1055 ;
1056 [label="entropy = 0.0\nsamples = 4\nvalue = [0, 4]"] ;
1054 -> 1056 ;
1057 [label="entropy = 0.0\nsamples = 14\nvalue = [14, 0]"] ;
1051 -> 1057 ;
1058 [label="billAmountChangePct <= -0.17\nentropy = 0.852\nsamples = 18\nvalue = [5, 13]"] ;
1050 -> 1058 ;
1059 [label="peakOffPeakRatioChangePct <= 2.0\nentropy = 0.985\nsamples = 7\nvalue = [4, 3]"] ;
1058 -> 1059 ;
1060 [label="entropy = 0.0\nsamples = 3\nvalue = [3, 0]"] ;
1059 -> 1060 ;
1061 [label="income <= 4.5\nentropy = 0.811\nsamples = 4\nvalue = [1, 3]"] ;
1059 -> 1061 ;
1062 [label="entropy = 0.0\nsamples = 1\nvalue = [1, 0]"] ;
1061 -> 1062 ;
1063 [label="entropy = 0.0\nsamples = 3\nvalue = [0, 3]"] ;
1061 -> 1063 ;
1064 [label="callMinutesChangePct <= -0.095\nentropy = 0.439\nsamples = 11\nvalue = [1, 10]"] ;
1058 -> 1064 ;
1065 [label="entropy = 0.0\nsamples = 10\nvalue = [0, 10]"] ;
1064 -> 1065 ;
1066 [label="entropy = 0.0\nsamples = 1\nvalue = [1, 0]"] ;
1064 -> 1066 ;
1067 [label="entropy = 0.0\nsamples = 3\nvalue = [0, 3]"] ;
1007 -> 1067 ;
1068 [label="entropy = 0.0\nsamples = 5\nvalue = [0, 5]"] ;
1004 -> 1068 ;
1069 [label="avgInCalls <= 3.665\nentropy = 0.414\nsamples = 12\nvalue = [11, 1]"] ;
1003 -> 1069 ;
1070 [label="currentHandsetPrice <= 29.995\nentropy = 1.0\nsamples = 2\nvalue = [1, 1]"] ;
1069 -> 1070 ;
1071 [label="entropy = 0.0\nsamples = 1\nvalue = [1, 0]"] ;
1070 -> 1071 ;
1072 [label="entropy = 0.0\nsamples = 1\nvalue = [0, 1]"] ;
1070 -> 1072 ;
1073 [label="entropy = 0.0\nsamples = 10\nvalue = [10, 0]"] ;
1069 -> 1073 ;
1074 [label="entropy = 0.0\nsamples = 10\nvalue = [0, 10]"] ;
868 -> 1074 ;
1075 [label="avgRoamCalls <= 8.31\nentropy = 0.987\nsamples = 815\nvalue = [352, 463]"] ;
781 -> 1075 ;
1076 [label="handsetAge <= 346.5\nentropy = 0.988\nsamples = 807\nvalue = [352, 455]"] ;
1075 -> 1076 ;
1077 [label="currentHandsetPrice <= 139.99\nentropy = 0.91\nsamples = 123\nvalue = [40, 83]"] ;
1076 -> 1077 ;
1078 [label="handsetAge <= 313.5\nentropy = 0.884\nsamples = 119\nvalue = [36, 83]"] ;
1077 -> 1078 ;
1079 [label="callMinutesChangePct <= -0.208\nentropy = 0.996\nsamples = 28\nvalue = [15, 13]"] ;
1078 -> 1079 ;
1080 [label="avgBill <= 32.56\nentropy = 0.954\nsamples = 24\nvalue = [15, 9]"] ;
1079 -> 1080 ;
1081 [label="entropy = 0.0\nsamples = 7\nvalue = [7, 0]"] ;
1080 -> 1081 ;
1082 [label="handsetAge <= 309.5\nentropy = 0.998\nsamples = 17\nvalue = [8, 9]"] ;
1080 -> 1082 ;
1083 [label="peakOffPeakRatioChangePct <= -2.628\nentropy = 0.592\nsamples = 7\nvalue = [1, 6]"] ;
1082 -> 1083 ;
1084 [label="entropy = 0.0\nsamples = 1\nvalue = [1, 0]"] ;
1083 -> 1084 ;
1085 [label="entropy = 0.0\nsamples = 6\nvalue = [0, 6]"] ;
1083 -> 1085 ;
1086 [label="peakOffPeakRatio <= 0.686\nentropy = 0.881\nsamples = 10\nvalue = [7, 3]"] ;
1082 -> 1086 ;
1087 [label="avgBill <= 34.545\nentropy = 0.811\nsamples = 4\nvalue = [1, 3]"] ;
1086 -> 1087 ;
1088 [label="entropy = 0.0\nsamples = 1\nvalue = [1, 0]"] ;
1087 -> 1088 ;
1089 [label="entropy = 0.0\nsamples = 3\nvalue = [0, 3]"] ;
1087 -> 1089 ;
1090 [label="entropy = 0.0\nsamples = 6\nvalue = [6, 0]"] ;
1086 -> 1090 ;
1091 [label="entropy = 0.0\nsamples = 4\nvalue = [0, 4]"] ;
1079 -> 1091 ;
1092 [label="billAmountChangePct <= -0.025\nentropy = 0.779\nsamples = 91\nvalue = [21, 70]"] ;
1078 -> 1092 ;
1093 [label="entropy = 0.0\nsamples = 2\nvalue = [2, 0]"] ;
1092 -> 1093 ;
1094 [label="callMinutesChangePct <= -0.148\nentropy = 0.748\nsamples = 89\nvalue = [19, 70]"] ;
1092 -> 1094 ;
1095 [label="billAmountChangePct <= -0.005\nentropy = 0.622\nsamples = 71\nvalue = [11, 60]"] ;
1094 -> 1095 ;
1096 [label="entropy = 0.0\nsamples = 21\nvalue = [0, 21]"] ;
1095 -> 1096 ;
1097 [label="avgReceivedMins <= 135.845\nentropy = 0.76\nsamples = 50\nvalue = [11, 39]"] ;
1095 -> 1097 ;
1098 [label="peakOffPeakRatioChangePct <= 13.16\nentropy = 0.601\nsamples = 41\nvalue = [6, 35]"] ;
1097 -> 1098 ;
1099 [label="billAmountChangePct <= -0.004\nentropy = 0.414\nsamples = 36\nvalue = [3, 33]"] ;
1098 -> 1099 ;
1100 [label="avgInCalls <= 2.33\nentropy = 1.0\nsamples = 4\nvalue = [2, 2]"] ;
1099 -> 1100 ;
1101 [label="entropy = 0.0\nsamples = 2\nvalue = [2, 0]"] ;
1100 -> 1101 ;
1102 [label="entropy = 0.0\nsamples = 2\nvalue = [0, 2]"] ;
1100 -> 1102 ;
1103 [label="lifeTime <= 34.0\nentropy = 0.201\nsamples = 32\nvalue = [1, 31]"] ;
1099 -> 1103 ;
1104 [label="entropy = 0.0\nsamples = 31\nvalue = [0, 31]"] ;
1103 -> 1104 ;
1105 [label="entropy = 0.0\nsamples = 1\nvalue = [1, 0]"] ;
1103 -> 1105 ;
1106 [label="handsetAge <= 333.5\nentropy = 0.971\nsamples = 5\nvalue = [3, 2]"] ;
1098 -> 1106 ;
1107 [label="entropy = 0.0\nsamples = 2\nvalue = [0, 2]"] ;
1106 -> 1107 ;
1108 [label="entropy = 0.0\nsamples = 3\nvalue = [3, 0]"] ;
1106 -> 1108 ;
1109 [label="avgReceivedMins <= 188.255\nentropy = 0.991\nsamples = 9\nvalue = [5, 4]"] ;
1097 -> 1109 ;
1110 [label="entropy = 0.0\nsamples = 4\nvalue = [4, 0]"] ;
1109 -> 1110 ;
1111 [label="avgOverBundleMins <= 228.125\nentropy = 0.722\nsamples = 5\nvalue = [1, 4]"] ;
1109 -> 1111 ;
1112 [label="entropy = 0.0\nsamples = 4\nvalue = [0, 4]"] ;
1111 -> 1112 ;
1113 [label="entropy = 0.0\nsamples = 1\nvalue = [1, 0]"] ;
1111 -> 1113 ;
1114 [label="callMinutesChangePct <= -0.07\nentropy = 0.991\nsamples = 18\nvalue = [8, 10]"] ;
1094 -> 1114 ;
1115 [label="numHandsets <= 3.5\nentropy = 0.544\nsamples = 8\nvalue = [7, 1]"] ;
1114 -> 1115 ;
1116 [label="entropy = 0.0\nsamples = 7\nvalue = [7, 0]"] ;
1115 -> 1116 ;
1117 [label="entropy = 0.0\nsamples = 1\nvalue = [0, 1]"] ;
1115 -> 1117 ;
1118 [label="peakOffPeakRatio <= 3.553\nentropy = 0.469\nsamples = 10\nvalue = [1, 9]"] ;
1114 -> 1118 ;
1119 [label="entropy = 0.0\nsamples = 9\nvalue = [0, 9]"] ;
1118 -> 1119 ;
1120 [label="entropy = 0.0\nsamples = 1\nvalue = [1, 0]"] ;
1118 -> 1120 ;
1121 [label="entropy = 0.0\nsamples = 4\nvalue = [4, 0]"] ;
1077 -> 1121 ;
1122 [label="peakOffPeakRatioChangePct <= -10.268\nentropy = 0.994\nsamples = 684\nvalue = [312, 372]"] ;
1076 -> 1122 ;
1123 [label="avgReceivedMins <= 0.005\nentropy = 0.988\nsamples = 110\nvalue = [62, 48]"] ;
1122 -> 1123 ;
1124 [label="avgOverBundleMins <= 4.0\nentropy = 0.799\nsamples = 33\nvalue = [25, 8]"] ;
1123 -> 1124 ;
1125 [label="age <= 35.0\nentropy = 0.709\nsamples = 31\nvalue = [25, 6]"] ;
1124 -> 1125 ;
1126 [label="currentHandsetPrice <= 14.995\nentropy = 0.937\nsamples = 17\nvalue = [11, 6]"] ;
1125 -> 1126 ;
1127 [label="callMinutesChangePct <= -0.182\nentropy = 0.75\nsamples = 14\nvalue = [11, 3]"] ;
1126 -> 1127 ;
1128 [label="lifeTime <= 13.5\nentropy = 0.954\nsamples = 8\nvalue = [5, 3]"] ;
1127 -> 1128 ;
1129 [label="entropy = 0.0\nsamples = 4\nvalue = [4, 0]"] ;
1128 -> 1129 ;
1130 [label="avgDroppedCalls <= 1.17\nentropy = 0.811\nsamples = 4\nvalue = [1, 3]"] ;
1128 -> 1130 ;
1131 [label="entropy = 0.0\nsamples = 3\nvalue = [0, 3]"] ;
1130 -> 1131 ;
1132 [label="entropy = 0.0\nsamples = 1\nvalue = [1, 0]"] ;
1130 -> 1132 ;
1133 [label="entropy = 0.0\nsamples = 6\nvalue = [6, 0]"] ;
1127 -> 1133 ;
1134 [label="entropy = 0.0\nsamples = 3\nvalue = [0, 3]"] ;
1126 -> 1134 ;
1135 [label="entropy = 0.0\nsamples = 14\nvalue = [14, 0]"] ;
1125 -> 1135 ;
1136 [label="entropy = 0.0\nsamples = 2\nvalue = [0, 2]"] ;
1124 -> 1136 ;
1137 [label="avgOutCalls <= 4.5\nentropy = 0.999\nsamples = 77\nvalue = [37, 40]"] ;
1123 -> 1137 ;
1138 [label="avgBill <= 20.615\nentropy = 0.75\nsamples = 28\nvalue = [6, 22]"] ;
1137 -> 1138 ;
1139 [label="entropy = 0.0\nsamples = 2\nvalue = [2, 0]"] ;
1138 -> 1139 ;
1140 [label="billAmountChangePct <= -0.001\nentropy = 0.619\nsamples = 26\nvalue = [4, 22]"] ;
1138 -> 1140 ;
1141 [label="entropy = 0.0\nsamples = 12\nvalue = [0, 12]"] ;
1140 -> 1141 ;
1142 [label="avgOutCalls <= 2.165\nentropy = 0.863\nsamples = 14\nvalue = [4, 10]"] ;
1140 -> 1142 ;
1143 [label="avgOutCalls <= 1.0\nentropy = 1.0\nsamples = 8\nvalue = [4, 4]"] ;
1142 -> 1143 ;
1144 [label="entropy = 0.0\nsamples = 4\nvalue = [0, 4]"] ;
1143 -> 1144 ;
1145 [label="entropy = 0.0\nsamples = 4\nvalue = [4, 0]"] ;
1143 -> 1145 ;
1146 [label="entropy = 0.0\nsamples = 6\nvalue = [0, 6]"] ;
1142 -> 1146 ;
1147 [label="income <= 2.0\nentropy = 0.949\nsamples = 49\nvalue = [31, 18]"] ;
1137 -> 1147 ;
1148 [label="avgReceivedMins <= 60.47\nentropy = 0.845\nsamples = 11\nvalue = [3, 8]"] ;
1147 -> 1148 ;
